4192 64
322 0.49772137 1.2914888 -0.14838372 -0.115072474 -0.33438975 -0.13027696 0.43060607 0.67394435 0.38695347 1.7759372 -0.99443984 -0.25042117 0.046001352 0.3968994 -0.75179994 -0.6344744 -1.090724 -0.18733345 0.114721306 -0.88111764 -1.3707265 -0.046551984 0.089031786 -0.41497338 -0.56196827 0.039334305 -0.45620337 0.11547786 0.8916737 0.29122612 -1.4282469 0.14603405 -0.18242206 0.30508304 -0.33532894 -0.1809912 -0.6258917 -0.54891026 0.18262544 -0.23050837 0.3543336 -0.770113 -0.54569834 -0.05383034 -0.020264229 -0.5893464 0.29089242 0.16156867 0.58190006 -0.7462271 0.046770006 0.4214818 0.9252483 -0.19254333 0.32058895 -0.8941538 0.834301 -1.070058 -0.50856405 1.3736863 0.35653615 -0.14586063 0.3238115 -0.0049656867
32 0.052725658 -0.823944 0.9742745 -0.49850908 -0.2934116 0.45186386 -0.26475912 -0.7202357 -0.3635665 0.65374064 -0.23811005 -0.65192866 0.5182623 -0.3144204 -0.8587146 -0.38155746 -0.22750314 0.9435929 -0.057879023 0.1921428 -1.1333026 -0.24792019 0.32605007 -0.12208983 -0.20262842 -1.142547 0.595591 -0.83311903 -0.742737 0.53428286 0.06992843 -0.81795686 0.6630929 0.099161156 -0.23568895 0.3487156 -0.2864472 -0.26964796 0.62368923 0.052739758 -0.4042625 -0.6542673 0.75798666 0.36649695 -0.72219443 -0.02117184 0.059924323 0.095885456 0.41578987 -1.0290594 -0.44242254 -0.78794473 0.35942948 -0.6450392 1.5106574 -0.22993083 0.7143465 -0.49370292 -0.61864907 0.5248505 0.058362767 -0.058391217 0.024790239 0.4968479
1380 -0.025816271 0.7087574 0.2634914 -0.6633517 -0.5411423 -0.092492655 -0.9506066 0.15060125 -0.52063596 0.51589715 -0.8939335 0.50256413 0.19533919 -0.15187171 0.40904546 0.24184887 0.952298 -0.2650456 -0.65630573 0.72700375 -0.8183507 0.2917171 -1.0954581 0.885563 -0.3637583 -0.031153915 -0.35841453 -0.13630922 -0.07046682 -0.12566456 -1.3851935 0.36543265 -0.14019017 0.9253046 0.0404411 -0.0287259 -0.4484105 -0.3380282 -0.0097605195 1.3749106 -0.41071427 -0.06569754 0.18163691 0.6655304 0.33162543 -1.36034 -0.5579665 0.0877548 1.0816349 -0.15078142 0.91546035 -0.28161427 0.1499578 0.5555739 0.92175084 -0.59847647 0.2937338 0.12040851 -0.059981268 0.19853848 -0.93206084 -0.62639517 0.46196282 1.1747085
2998 0.16233857 0.7285432 0.22748697 -0.22740671 -0.017320475 0.3514165 0.06381845 0.12623298 -0.780873 -0.60990757 -0.2518753 0.07972831 0.16162233 0.4506391 -0.37474918 0.20329137 -0.325643 0.33167553 0.093543194 -0.7334424 -0.83937454 0.9364628 -0.056362595 0.18137586 -0.5174047 -0.34877786 -0.687732 -0.5735883 -0.7343632 0.43547106 -0.2327325 -1.3758283 -0.067905925 0.19208787 -0.8439507 0.23623317 -0.56952274 0.14876384 0.72885257 0.3329588 -0.3833447 -0.6055173 -0.6655489 0.2886047 0.4312182 -1.2906308 0.03244358 0.14868376 -0.070955046 0.16405292 1.1150371 -0.85059917 0.04345653 0.8221095 0.81609255 1.0739083 1.3785682 0.10049394 0.6231327 0.03193706 -0.44118214 0.5908898 0.61977714 0.18367308
2991 0.1891008 0.7261397 0.21148628 -0.22678067 0.033244472 0.3531917 0.15497242 0.09278181 -0.79845524 -0.642854 -0.23326084 0.07207504 0.31564233 0.45182338 -0.31826717 0.19632638 -0.28248224 0.27814227 0.017652486 -0.6961985 -0.8979431 0.9639468 -0.14789332 0.14231169 -0.55707353 -0.27156678 -0.72770524 -0.46009496 -0.67917526 0.40808082 -0.25154817 -1.4101098 -0.0095322095 0.18941723 -0.9107267 0.25273255 -0.5764195 0.16190128 0.7374072 0.40691817 -0.3905994 -0.59783447 -0.63789076 0.31016442 0.50356036 -1.2675499 -0.03949055 0.13948119 -0.07307105 0.14495993 1.0517645 -0.826061 0.026200874 0.80184454 0.79680693 1.0752839 1.3932273 0.08678891 0.5280628 0.08906251 -0.35464782 0.538163 0.49665436 0.1510153
2655 0.10321324 -0.17791487 -0.521287 0.5159316 -0.71691316 0.35634604 -0.33736822 0.2518452 -0.22460651 0.5696959 -0.42899784 0.7506184 -0.81754637 -0.04352308 0.24191675 -0.7586322 0.17981318 1.1261605 1.0675076 -0.829457 -1.0169003 0.59240955 1.5406764 -1.6655943 -0.32042077 -0.98218834 -0.57065254 -0.45518497 -0.616644 0.93126655 -0.6112004 -0.5186876 0.15608251 0.5468782 0.2691645 1.1426007 -0.8843838 -0.78250384 -0.22264783 0.17069267 -0.454875 -0.26693857 -1.2323835 -0.5357603 0.610363 -0.90138286 0.7372584 1.6385912 -0.11885099 0.6274448 -0.50217736 0.17309485 0.15018441 0.0936457 0.17316288 -0.5067868 0.3084071 0.3735348 0.86030555 -0.25647762 -1.8112111 -0.17693985 -0.060328323 0.50417644
398 0.50524396 0.0039834506 0.57347184 -0.4575034 -1.1644886 -0.61448514 0.22212933 -0.37317532 -0.0037862228 -0.16628745 -0.50227976 -0.7581536 -0.63209087 -0.41622922 0.41665164 -0.6685369 -0.11568701 -0.3925219 -0.3175012 -0.62677723 0.092390805 -0.29345113 1.2301652 0.09111892 -0.13674176 -1.2072803 0.90654045 0.79477924 -0.8546514 -0.12280404 -0.3625614 -0.14970465 -0.45816338 0.2522015 -0.48155636 0.20573208 -0.006942956 -1.3152941 0.08535941 -0.6017711 0.55947375 0.42859486 -1.2171527 -0.66830647 0.2096189 -0.8160425 0.83098215 0.54387164 0.648508 0.24336198 0.54684216 1.0064684 -0.40690655 -0.15260008 1.165397 -0.27657673 -1.4836953 -1.3089497 0.13765337 -0.12670738 -1.2524965 -0.08353896 -0.42833215 1.0893708
70 0.03683857 0.19631462 0.76671976 -0.7509664 0.03808709 -0.14217754 -0.45589626 0.32355013 1.2868421 0.87186795 0.17971805 -0.054965552 0.074091405 -0.75838274 -1.3876495 0.35978863 0.94984835 -0.7540607 0.057430346 -1.071668 -0.029632444 -0.4442602 -0.56640166 0.070814796 -0.40689865 -0.9276369 -0.29001123 -0.31766757 -1.355635 1.6143271 -0.25364318 0.48587352 -0.28437293 0.7915845 0.03080491 0.27784517 -0.57078594 -0.32698846 0.19977665 -0.309913 0.23608334 -0.29317677 -0.8245032 -0.52542335 -0.8679866 0.055127483 -0.7638314 -0.8196474 0.29758996 0.16371273 -0.08463167 0.46569213 0.36050355 -0.17152677 0.99202263 -0.70461756 0.5081929 -0.23240915 0.4119454 -0.42878333 -0.37700763 -0.4828393 -0.8944577 0.38806656
3205 -1.6561531 -0.31995592 0.13103643 0.2818304 -0.3742796 0.85522246 -0.25387692 -0.86301494 0.21176705 -0.53083044 0.18102196 0.86354995 0.052253745 -0.4461334 -0.6219327 0.3385875 -0.06128172 1.0810978 0.041046612 -0.92242646 -0.7636248 0.48433354 0.040176652 -0.472753 0.05841262 -0.2668628 -0.83777416 0.34722587 -1.2760749 -0.098895304 -0.06729229 -1.2533888 0.20469767 0.05470518 -1.1793711 0.057344846 0.07314909 1.0233877 -0.08408136 -0.07350088 -0.7126452 0.35485953 -1.296829 -0.8979071 -0.4903345 -0.97383094 0.6437971 1.7171817 -1.1929133 0.6093068 0.11872693 0.029059047 0.793443 -0.15091097 1.2964951 -0.47664365 0.3386697 0.6179384 -0.6919859 0.56008893 0.1983631 -0.2387124 -0.35979226 1.1702949
3455 0.53955996 0.40090778 -1.7645102 -0.6154188 -0.1684991 0.054710347 0.38537976 0.3328676 0.3633615 0.8454388 -0.55064857 0.1572455 0.6638641 0.18920647 -0.4675051 0.43611348 0.35262188 0.41484937 1.0275869 0.3468895 0.039954506 -0.19302964 0.95750886 0.053272672 0.7452432 -0.6066162 -0.9146605 0.24239804 -0.6898061 0.49895796 -0.63572717 0.21114595 0.089401156 1.1642338 -0.7283769 1.4643018 -0.40154988 0.7280554 1.0955548 0.1816784 -1.3942486 -0.30956846 -1.3571124 -0.35013238 -0.5381222 -0.02045656 0.26144525 0.3997394 -0.012877647 0.5340174 -0.3911158 -0.40638274 -0.29991168 0.14672253 1.7999306 -0.8526909 0.782092 -0.08454903 -0.96792006 -1.0431861 0.08789841 0.22684845 -0.8401541 0.15495342
1141 0.13970718 -0.1004857 -1.1822544 -0.40179098 -1.0990152 -0.7152139 -0.81607646 0.92422956 -0.18480209 0.2987342 -0.4415982 0.13584441 0.38331395 -0.43469927 0.39154086 0.37263617 0.7264434 0.8649534 0.41854233 -0.7554473 0.15199544 0.46741694 -0.026432414 -1.0318147 0.180376 -0.02410186 -0.40994948 0.8013353 -0.80141026 1.2929237 -0.3705842 -0.45203358 0.9160993 -0.19090107 -0.48025665 0.48993602 0.26361024 0.8417153 0.30741742 -0.31073025 -0.98004526 0.030712605 -0.7290268 -0.4670988 0.16033624 -1.5620707 0.030121716 1.2164348 0.3134796 1.4385128 -0.20952725 -1.2631575 -0.086547494 0.14297526 1.4225609 0.13882911 0.14817867 0.8590433 -0.19804619 -1.5152639 0.44314322 -0.5746356 1.0157729 0.67177755
2294 0.4239173 0.5537929 -1.1342734 -0.5607069 -0.85760605 -1.2185018 0.7083023 1.0591019 1.0681558 -0.21524218 -0.06167764 0.16856581 0.68146497 -0.37121662 -0.67712563 1.0118592 0.9146918 -0.25503612 -0.47522616 -0.41458637 -0.35913664 0.24808174 0.38986948 -0.5752609 0.9794549 -0.13104136 -0.403807 0.3296294 -0.4435605 0.9994325 -0.37997988 0.0034012054 0.76585364 0.046592765 0.6689147 0.33617708 -0.20955493 0.07924483 0.12257575 0.13770606 -0.68640524 -0.42323783 -0.49435973 -0.8321133 -0.762405 -1.1723219 0.32715455 0.28823256 0.1779465 0.6582951 0.67562735 0.163641 0.25213555 -0.6768788 1.1207258 0.41615334 1.0488449 0.12763458 -0.31625935 -1.8877138 -0.17852144 0.98173565 1.05527 0.9413283
233 -0.52066755 -0.0940686 -0.8106047 -0.29068106 -0.7377605 0.1599555 -0.5780398 -0.12910211 0.30144352 -0.30680656 0.06123053 0.9659581 0.3050286 -0.5029272 0.0027743753 0.4852678 0.23492078 -0.15297869 -0.052432533 -1.7837229 -1.0423017 -0.21700546 0.9904527 -0.88202965 0.8973002 0.47543523 -0.9295306 1.6035329 0.043379005 0.4002434 0.15013924 -0.32992613 0.7686726 -0.4378553 0.5084905 0.30152524 0.19163041 0.9434536 -0.3396999 0.16406113 -0.99682826 0.28416997 -1.0197636 -1.0192468 -0.6861991 -1.875334 0.6334766 0.879582 -0.39345542 0.070569485 0.13902396 -0.017946282 -0.22863938 0.15456708 0.9075241 0.050267234 -0.4313958 -0.91856813 -0.53260034 -0.94816554 -0.88685673 -0.5713255 0.8153251 0.22373898
1757 0.20714387 0.9199727 -0.41736713 -0.5759397 -0.10387477 -0.7672071 0.7157057 -0.53066254 0.50184464 -0.2382047 0.7221432 0.20283785 -0.8380927 -0.45110694 -0.3878519 -0.12455179 0.46034724 0.7292307 0.36578003 -0.2717901 -1.4378741 0.40926853 0.8658433 -0.32351434 -0.1898638 -0.17933573 0.6726573 0.75277174 0.4239436 0.35618174 -0.64294964 -1.0978155 -0.32436967 0.58510417 -1.027126 -0.894103 0.11952824 -0.4078299 0.31383944 0.19768648 -0.16169335 -0.5202301 -1.953742 0.3743858 -0.7720001 -0.9600149 -0.1831561 0.31241447 -0.5179217 0.18384725 0.52615654 -1.1605192 1.2368233 0.3182443 0.7700816 -0.20510186 -1.8186685 -0.13955297 -0.141148 -0.6242981 -0.41115925 0.6433085 1.059857 1.2167118
810 -0.23861119 0.813521 -1.0302513 0.3556583 0.30449882 0.6678401 0.71616584 -0.45012078 -0.85573167 0.312219 0.42626503 -0.32431188 -1.0460896 -0.6951616 -0.52568567 -0.626789 0.6715272 -0.050420552 0.6054884 -0.44642246 -0.796802 -0.51369774 1.4333502 0.5660981 0.43481207 -0.78421795 -2.039238 0.5890175 0.033169813 -0.59533817 -0.45803544 -0.16635413 -0.62556225 1.3233911 -0.9757329 0.33313024 -0.34179887 0.37613422 0.32783735 0.08550056 0.24956322 -0.4730329 -0.47453374 -0.94774497 0.16524793 -0.30249566 -0.098218724 -0.04565729 0.45580247 -1.1008042 1.1225343 0.7660106 0.50969416 -0.2003161 0.57799965 -0.3804506 -0.023154119 -1.0007635 0.59972674 0.9518522 -0.7204081 0.3880873 0.7312986 0.4925416
846 0.22333524 -0.66964626 -1.0125535 0.43727273 -0.38216048 1.7296232 1.1408415 0.7568914 0.3194944 0.62841994 0.025036095 0.83774817 -0.48635152 -0.9374296 0.2233243 0.8518121 0.51978797 0.7093832 -0.3363418 0.09879075 -0.78300774 0.25478598 0.3877466 -0.58794934 -0.6817801 -0.48403895 -1.2180827 0.111809395 -0.08103719 0.09145987 0.89936334 -0.90768415 -0.006228255 1.0310526 -0.35886085 1.1343094 0.03002379 0.33077362 0.46309686 0.50244373 -0.06318244 0.06863102 -0.19910173 -0.4201053 -0.7504144 -1.1165875 0.6682649 0.68612576 0.41092557 1.3600135 1.4257324 -0.44758397 0.62792605 -0.5659574 0.93631303 -0.8040571 -0.9331766 0.31775093 0.35219222 -0.06094463 0.40330657 0.33465183 0.35282198 0.24599496
419 0.14048395 0.21462613 -0.3516003 -0.40229985 -0.6226941 1.0275724 0.57070917 -0.29459402 0.023646045 -0.3502638 0.48745096 1.8446411 1.1593778 -1.5280261 -0.613061 -0.2252894 1.2641256 0.4470418 -0.23988903 -0.4365436 -1.6351626 0.07369077 1.3009015 0.7236126 -0.1830774 0.7364383 -0.07303735 0.17338614 0.12796207 0.9421138 0.06643359 -0.21862008 -0.13171422 -0.12226287 0.20854585 0.19823456 0.4595679 0.75499946 -0.01035851 0.19200875 0.8432797 -0.35584474 -0.53125256 0.51942265 -0.04319687 -0.8414526 0.5638765 0.20067124 0.5903699 0.54616076 0.10769571 0.27489784 -0.7254113 -1.0353717 1.0552052 -0.41253704 0.5354374 -0.040213227 -1.2519606 -0.38396987 -1.0714306 0.74363667 0.23536567 -0.6242655
1453 0.75157684 -0.25708178 -0.10600324 0.05660541 0.49153084 -0.9974851 -0.2926878 -0.5612084 -0.04558315 0.010205542 -0.22823128 -0.33018756 0.30821046 -0.26726937 0.8738475 0.29148203 0.27231583 -0.035999108 -0.537522 -0.8907242 -1.070845 0.59149593 0.059228983 0.48222327 0.25065544 0.028225087 -0.4087826 -0.6629131 -0.27567348 -0.07649067 -0.30415475 -0.7230722 -1.0783138 0.34531835 0.27374375 0.7512315 -0.18383236 0.0020012395 0.748579 -0.07055048 0.63295937 -1.0746377 -0.5823038 -0.04209439 -0.42507547 -0.8986992 -0.47695258 1.3018699 0.49758962 1.2495679 0.36766756 -0.023323352 -0.7181662 0.5803356 1.0077243 -0.35554448 -0.054330137 0.81368005 -1.4482123 0.35019854 0.65697163 -0.9785088 0.4177749 1.0792171
293 0.7679689 -0.94881743 -0.61177766 -1.075226 0.49050882 -0.20220967 -0.4249887 0.49052167 -0.691514 -0.057883173 -1.510721 -1.1908724 -0.9884169 -0.23433825 0.89238125 -0.27633646 1.1478755 0.7872962 0.3235497 -0.51899415 -0.9683653 0.46282586 0.21663797 -0.016179638 0.18851875 -1.4129713 0.29343903 0.28919008 -1.0752138 0.65493965 -0.7186611 -0.74745065 0.17345132 0.14323507 0.83226323 -0.58585984 -0.41461635 -0.60759324 -0.054973576 0.6035252 0.12720399 -0.3903477 -1.080697 0.9957315 -0.19764836 -0.43836138 -0.03592557 1.6230181 0.32461444 0.60903245 0.5073811 -0.5125618 -0.033317506 -0.7305861 0.1911227 -0.38303325 -0.25219387 0.6130676 -0.008119481 1.0318712 -0.16900648 -0.101455525 0.08618646 0.5323467
949 -0.7039356 0.3252467 -0.85775405 -0.15481329 0.07239984 0.63043284 -0.317321 0.11125476 -0.62406325 -0.6130823 -0.5643593 0.7357129 -0.18484491 0.024187937 0.22528794 -0.42176652 -0.13746798 0.23609607 0.48204258 -0.95985097 -0.28560042 -0.13592236 1.6245939 -0.5935709 0.80926025 -0.40879813 -0.2454549 0.9477945 -0.5888127 -0.14138515 -1.2188622 -0.6545723 0.49832755 0.4548919 -0.71166706 0.3000189 -0.83795047 0.22964987 0.012691627 0.42084295 -0.9205195 -0.72259706 -1.1661383 1.1190532 -0.01282442 0.26399764 -0.4074229 1.2419858 -0.5475215 -0.31914186 0.6769439 0.07760443 -0.6013823 1.0790169 1.1518983 -0.026290562 0.22713146 -0.5475928 -0.35666376 -0.31211615 0.77076346 0.39336187 0.41984326 1.1722685
743 -0.42590964 0.37362325 0.58835 -0.54542774 -0.9830864 -0.4907137 0.3492039 0.018414242 -0.7443773 -0.693721 -0.09559599 1.2094579 0.020340152 -1.3824297 0.33144435 -0.7334849 1.2750436 -0.15772568 0.60494554 -0.34462112 -1.2749352 0.38516408 0.7750144 -1.7930967 -0.48952764 0.79113865 -0.5876749 0.50987387 -0.0922064 0.11952587 0.7472276 -1.9869303 0.1871723 -0.77435184 0.31088498 1.4228424 0.6840399 0.2595699 0.6008083 0.540201 0.2076074 0.59956414 0.030882835 -0.5294465 0.5056065 -1.013436 -0.19995122 0.81165016 1.4430782 -0.30260596 0.7884601 0.20001182 -0.10326436 -0.6045212 1.0749862 0.27273527 -0.76471496 -0.15878904 0.07919481 -0.11104746 -0.83752763 0.0704092 0.52647424 0.0681156
180 -0.010608423 -0.20388769 -0.69249356 -0.16880973 -0.5889591 0.28358182 -0.9211803 0.3441616 0.3727251 0.37266275 0.48703894 0.82886094 0.70541954 -0.66461354 -0.38168627 -0.24885549 0.30764756 0.040777892 -0.4477282 -1.429206 -0.5617101 1.7636256 0.45855728 -0.054042015 0.97878987 -0.6699318 -0.7219971 -0.6050921 -0.5623796 0.24312326 0.6231259 -0.7473346 0.18833256 0.7175536 -0.06292149 0.79397774 0.3321103 0.2829224 1.0530902 0.20857324 0.22777493 -1.1982135 -0.8788824 0.23726483 0.7430026 -1.063735 0.5144768 1.4934844 -0.1195551 0.31710416 0.07332155 0.69509685 -0.71034324 -0.16562232 1.4823458 8.858271e-05 -1.5411688 0.32648677 1.3110331 0.011634776 -0.38495624 -0.04830697 -0.17065994 0.5171285
934 -0.681315 0.29574203 -0.86952704 -0.1528635 0.09755697 0.55515134 -0.32466948 0.087996356 -0.6845956 -0.50797874 -0.4763169 0.7533041 -0.22259183 0.030787643 0.2641306 -0.33161712 -0.20794234 0.22696802 0.4275815 -0.94834954 -0.31001508 -0.1716102 1.6720524 -0.6891597 0.74738556 -0.3581681 -0.23079574 0.8930135 -0.6169157 -0.16142127 -1.158739 -0.6052739 0.37701592 0.47015548 -0.6035107 0.29540926 -0.8629674 0.30336487 0.044507768 0.4310946 -0.88015 -0.64446664 -1.1412258 1.1596761 0.02132235 0.1446527 -0.37632507 1.2404855 -0.63978434 -0.30362058 0.68471605 -0.01887963 -0.5603191 1.0704497 1.1256173 0.06277535 0.25250405 -0.5272914 -0.42945468 -0.2273565 0.7047596 0.37144983 0.3911022 1.1096573
651 0.882836 0.035938766 -1.2650996 -0.4965193 0.6566346 -0.055549547 -0.7750763 0.38055933 -0.35465774 -0.12938507 -0.26090634 -0.16959648 -1.0715013 -0.12250414 -0.81772405 -0.75318915 0.18397962 0.34751657 -1.5109845 -0.52361405 -0.20819473 -0.43171057 0.6318514 -0.13931777 0.69389623 -0.3410644 0.57259387 0.7915773 0.41588563 1.410621 -1.2263662 -0.32908946 0.5887596 1.7497007 -0.9215566 0.6457695 -0.31596634 -0.11300571 0.6579227 0.7992393 -0.5168429 -1.2138541 -0.43166378 0.38931966 -0.61575323 -1.5648203 -0.007910798 0.8410577 0.38318706 -0.40847942 -0.028780272 0.49272597 1.1581198 0.49409243 0.28165424 0.77784336 1.1337093 0.56499505 1.3942858 -0.14718401 -0.9930108 0.6029254 0.6656779 0.0080674635
2273 0.7168949 -0.26408458 -0.6186372 -0.7850207 -1.3452761 0.45647532 -0.9966416 0.57706845 0.44022042 0.17087922 0.08470205 0.7232836 0.16291584 -0.60855037 -0.014000356 -0.18193781 -0.80653816 0.122627504 -1.3860077 -0.37057018 -0.87926173 0.49067867 0.47376096 -0.75355196 -0.4574118 -1.0509228 0.11232374 0.052135833 0.75647753 1.0008154 -0.54423785 0.16135134 0.9451963 -0.37248474 -1.2940538 0.47468793 -1.6802942 -1.0435306 0.46441203 0.25850162 -0.7228184 -1.0168498 -0.41351303 0.07747972 -0.50759304 -1.0335835 0.91926265 0.7515051 0.12305652 -0.29683644 0.9695396 -0.3210653 0.11275617 0.15229446 0.98222136 0.5227919 0.13043672 0.092416696 1.3512802 -1.1524236 0.026283965 -0.47754654 -0.27041405 -0.19975281
38 0.2225152 -0.99229014 0.5024506 -0.51043653 -0.3002126 0.33153105 -0.516679 -0.7127825 -0.46082988 0.18986338 -0.3828314 -0.47497675 0.027706943 0.19079262 -0.9995655 -0.58172923 -0.36151838 0.5849495 -0.08876849 -0.039702084 -0.9145471 0.06420907 -0.52305067 0.48250133 0.33171493 -0.78649753 0.8745551 -0.55798984 -0.36446667 0.2017219 -0.122517094 -0.9578548 0.33360767 0.50779325 -0.15285146 1.0884352 -0.65484446 -0.7106363 0.75261545 -0.09262863 0.37603524 -0.7842285 1.262788 0.5241575 -0.45247564 -0.08018728 0.30156165 0.19281313 0.35666424 -0.55248594 -0.22318898 -0.4275687 0.33035612 -0.24216221 1.5084572 -0.26316863 0.91411537 -0.8203141 -0.11574241 0.41924867 0.21398348 -0.05980824 0.17325483 0.5292587
2510 -0.26626614 -0.48354888 0.79543936 -0.9278053 -0.032958634 0.02926757 -0.69977903 -0.42711863 -0.30475965 -0.109668806 -0.7246508 -0.53107435 0.33302197 0.9486395 -0.33510095 -0.04132033 -0.9750252 0.15955545 0.18577477 -0.1883715 -0.07129455 0.7301782 -0.86864275 0.2527714 0.76210225 -0.8040433 0.53935784 -0.48902953 -0.5538203 0.9650916 -0.1452248 -1.1655793 0.057353448 0.52556384 -0.47444507 1.8703555 -1.0296985 -1.4657679 1.0409479 -0.056964803 -0.28021786 -0.7298155 0.513049 0.03845472 -0.12004893 -0.54051346 -0.021170922 0.53821397 0.14021859 -0.31785405 0.50812364 0.27237087 0.21853338 0.117471956 1.269047 -0.3115109 0.8407256 -0.6732977 0.0024249041 0.41558337 -0.27513668 -0.12419355 0.04002841 0.12904304
2159 0.94012785 -0.09609585 -0.5294211 -1.1593821 -1.1314235 -0.6212658 0.051578972 1.0097214 -0.030636685 -0.74207675 0.15635931 0.09001938 0.63329285 0.42522272 -0.11250024 0.84019804 0.59695226 -0.066138916 0.14743976 0.10355312 -0.12248954 -1.0106161 -0.14817338 0.19450341 -0.91546404 0.17657723 0.03086866 0.33554763 -0.44411236 0.068484895 -0.6158004 0.016439632 -0.54908437 -0.30963987 -0.49911276 1.2079256 -0.787127 -0.28060806 1.0067935 0.22428516 0.11399866 -0.4687966 -0.16320643 0.33697075 -0.2114618 -0.6056025 -0.39396918 -0.36169222 -0.66071653 0.49555132 -0.51138157 0.049782485 -0.2852376 -0.6655085 1.8282562 -0.15443547 -0.07476881 0.35154986 -1.2214669 1.189497 0.49241313 -0.3561541 -0.335659 1.0487685
605 0.022418998 0.83592385 0.38056105 -0.51251394 -0.053038415 -0.91205436 0.26661202 0.27460852 -0.03709098 0.33927533 -0.8302448 -0.39551243 -0.29948893 -0.060938623 -0.9736102 0.12947683 0.6469058 0.59769386 -1.1634475 -0.18987814 -0.77440464 0.7654012 0.16955324 -0.40768075 0.32644233 0.7682974 -0.12960093 0.6585087 -0.56666464 0.60310817 -0.8929058 -0.11657114 0.87524843 -0.14100266 0.6511832 -0.86761636 -0.68887323 -0.101411045 -0.299538 -0.7178862 0.45898336 -0.35673764 -0.5251661 -0.018275259 0.26109433 -1.1444428 0.54594356 -0.23828314 0.6822697 -0.55556595 -0.5630434 0.47595695 -0.18735188 -0.78887296 1.7115394 -0.04484341 0.13033411 -0.24108765 -0.34320155 0.9171421 0.21606532 -0.12404228 0.37385035 0.15771866
2383 0.30529538 0.14497796 -0.5737138 -0.8254405 -0.26143178 -0.06674984 -0.13432975 -0.65562916 0.30291134 0.25291407 0.35970575 0.36824477 0.58339685 -0.6291991 -0.19751386 -1.6313443 0.34524548 0.48966727 0.42351663 -0.7468519 -0.7157411 0.09547013 0.45348626 0.3132676 -0.20678136 -0.26450628 -0.50178903 0.03374136 -0.12951711 -0.010404438 0.075158775 0.41487655 0.6679126 1.0425981 -0.1545981 0.38804117 -0.6520393 -0.89975613 -0.21509476 -0.4278493 0.03382348 -0.83265215 -0.5144466 -0.7882205 2.089931 -0.7416364 -0.91223913 0.637586 -0.6879614 0.23766501 -0.0027644753 0.017094212 -0.19611956 -0.3013662 1.3085728 0.6775951 -0.09310874 -0.35823503 -1.901168 0.121349484 0.6275389 -1.1505483 -0.015694635 0.58175147
3270 0.85054654 -0.8242489 -0.006983757 0.69627434 -0.0166563 -0.36619085 1.0049229 -0.80693763 0.27374047 -0.11891881 -0.96612424 -0.26668128 0.22996667 0.27454555 -0.7701269 -0.05716565 0.644919 -0.33527097 0.42488652 -0.1909661 -1.0884551 0.15917687 0.07856475 0.48280182 0.055438604 -0.17517437 -0.32939062 0.3855094 -0.78090394 0.9958015 0.22761424 0.5682414 0.07811045 0.23773782 -0.049502485 0.18802902 -0.535765 -0.28370088 0.23296373 0.33717346 0.4000566 -0.3851117 -0.23465079 0.2092399 0.05581985 -1.0359215 0.5149552 0.15971729 -0.09496547 0.031884983 1.1304941 0.12064553 0.11128711 0.2225101 0.61051077 -0.3298377 -0.6265108 0.15670462 -0.6402461 -0.32408744 0.23231924 0.5053839 -0.5440064 0.12329892
3839 0.015167852 -0.04570707 0.44324413 -0.69034356 -0.58460927 0.94489753 0.065083444 -0.4613087 0.4660382 -0.31322926 -0.009580831 0.12413702 -0.32063913 -0.5524649 -0.98414004 0.44402054 -0.24448071 -0.34285417 0.18315542 -0.9625793 -1.1198865 0.21145286 0.58518577 -0.120674066 -0.7157564 0.8682933 -0.48601103 0.44254717 -0.46208462 0.3361188 -0.14508712 0.94748414 0.6608732 0.9532172 0.05416733 0.95035666 -0.094696745 0.68920565 0.52507854 -0.533291 0.09059545 -1.3325785 -1.1119461 0.17450164 -0.21243988 -1.1315522 -1.0413233 -0.087240204 -1.0377144 -0.88359267 -0.7964036 0.17480811 -0.08217995 0.007097115 1.082303 -0.5094765 -1.2030388 -0.3341208 -1.1779107 0.122006215 0.15942131 -0.28941238 0.17741388 0.8136456
616 0.5775331 0.8392684 -0.32695687 -1.4710745 0.30527905 -0.21642008 -0.2598891 -0.6943096 0.5567934 -0.2934654 -1.474793 1.0705831 0.18668902 0.21504317 -0.23218629 -0.055944692 -0.37117925 0.56196684 0.5150079 -0.9191728 -0.5692865 0.050061814 0.1918116 -0.05432869 -0.40819508 -0.14701627 -0.0693117 -0.25443363 -0.4854791 0.8194524 -0.6278402 -0.04864578 0.7094591 0.75049126 0.00082046905 0.108133405 -0.34933323 0.31797493 -0.039107498 -0.43942013 0.06663813 -0.048807073 -0.8522491 -0.25325048 0.031923328 -1.0614494 -0.2141291 0.3977509 -0.1727988 0.07513728 -0.5710362 -0.34657687 1.1396326 0.4571095 0.7830844 -0.9623426 -1.7195563 -0.1025018 -0.42814085 0.49788287 -0.01075927 -0.13084966 -0.24674821 1.1598102
635 0.58252746 0.8225796 -0.26138395 -1.5331544 0.2670801 -0.13399479 -0.27880532 -0.7212221 0.6060483 -0.40606 -1.4918025 1.0151913 0.20354038 0.2044209 -0.31431064 -0.14073569 -0.33265743 0.5870704 0.51580304 -0.8066166 -0.49306586 0.051896863 0.16037416 -0.08932702 -0.39339915 -0.13011552 0.013926831 -0.2267277 -0.44896108 0.8295897 -0.5763635 -0.042045414 0.72852325 0.69803846 -0.060460735 0.11976739 -0.31673482 0.3314976 -0.024005776 -0.38125995 0.048184007 -0.08905183 -0.9379938 -0.3222281 -0.018915972 -0.9939386 -0.25932103 0.52507895 -0.15988478 0.09843178 -0.49862796 -0.28122666 1.1309352 0.34065583 0.7661437 -0.87195474 -1.7468086 -0.050401002 -0.5150864 0.5209234 -0.0024521989 -0.10193195 -0.24941175 1.2314886
1783 -0.07100265 1.3391913 -0.7426949 -0.38421464 -0.339126 -0.8800197 -0.97766954 0.77180934 -0.026660694 -0.70494354 -0.3946323 -0.24086645 -1.2312609 -0.30708295 -0.77163744 0.08651068 -0.045723908 -0.32439932 0.16858481 -0.52307266 -0.09365582 -0.095811695 -0.45241627 -0.7600415 -0.9883741 0.49585274 -0.54544675 -0.9720723 -0.3111305 -0.27453595 0.021049188 -0.77893215 1.0794556 -0.2552346 -0.6691116 0.112374276 0.25373396 0.15382598 0.56252855 0.41500318 0.6879587 -1.2558917 -0.7847535 -0.65488595 -0.37452874 -0.70597607 -0.74179155 0.53170127 -0.20090474 -0.04714175 0.5877605 -0.05102108 0.3635107 0.29883507 1.1396824 -0.8845993 -0.82411176 -0.8167712 0.27654117 0.020525018 0.34076008 -0.46142793 0.37287438 0.23806132
2008 0.32986566 0.95438 0.36166936 -1.700578 0.84539396 -0.72629964 -0.14204648 -0.13317837 -0.2305601 0.21356556 -1.1005176 -0.80305535 0.25368533 -0.053887386 -1.0282346 -0.3938043 -0.03902993 0.36095405 0.042535763 -0.53120285 -0.3889129 -0.38922295 -0.2503231 0.5718143 -0.5852715 -0.78307855 0.11950973 -0.21221043 -0.020317364 0.5514912 -0.018034227 -0.4829967 0.66860646 0.29422694 -0.97597456 -0.48278788 0.098598756 -1.1781265 0.11116956 0.625738 0.6952545 -0.9791111 1.0893612 -0.19748737 -0.094848186 -0.71379346 -0.84685314 0.14262007 -0.2658278 0.1670432 1.047276 0.26540405 0.123925865 0.3050818 0.45176643 -0.16660129 0.28774062 -1.2491477 0.6009862 -0.33227068 0.7156134 -0.3735582 1.0849783 0.02040801
636 0.6789171 0.8033184 -0.29741293 -1.5472496 0.26444253 -0.18661535 -0.31444928 -0.7432906 0.62137836 -0.36041424 -1.4632496 1.0314437 0.19642028 0.23349121 -0.2735312 -0.039502237 -0.403319 0.5447283 0.5498625 -0.8581519 -0.566876 0.06841205 0.17727818 -0.15550189 -0.44353202 -0.13395959 -0.02805994 -0.29378873 -0.37000152 0.8427195 -0.5690401 -0.013929616 0.64626575 0.7138402 -0.018183244 0.1281324 -0.27944514 0.2560925 -0.009544621 -0.3726574 0.07156212 -0.08034401 -0.9076849 -0.31994635 0.00068053964 -0.9870057 -0.1911382 0.47282746 -0.15036465 0.09062555 -0.5648825 -0.27639076 1.0747945 0.4099368 0.8063449 -0.9014406 -1.7024294 -0.118352965 -0.5638879 0.494886 0.023207137 -0.093394645 -0.2210439 1.2249573
2121 0.57550186 -0.13798425 0.55748045 -1.0762783 0.19777334 -0.34393427 -0.43960482 0.5796974 1.3990195 0.4103964 -0.049050745 -0.11311486 -0.17447866 -0.64714235 -1.634442 0.17949626 0.66825324 -0.47481087 -0.12506603 -0.630586 0.10065779 -0.684346 0.21521041 -0.37374628 -0.41241834 -0.90862274 0.52743924 0.0122299185 -1.0398685 1.8164555 -0.030385062 0.759026 0.2805204 0.95867497 -0.22927679 0.39801383 -0.5067455 -0.32340312 0.48245525 -0.5781614 0.42635244 -0.8775914 -0.9587066 0.27949584 -0.7332077 0.2812569 -0.8190529 -0.37050378 0.19842035 0.06221257 -0.038893707 0.6015365 0.31953254 -0.32832503 1.0321164 -0.6317114 0.14838001 -1.0884714 0.1269741 -0.21369551 0.31140175 -0.66363716 -0.99112505 0.7886886
1479 0.22856116 1.2889055 -1.0166543 -0.39293227 0.29570517 0.35594362 0.2688403 -0.8582735 0.8103526 -0.20137045 0.1947018 0.28028783 -0.21427162 -0.9400521 0.10422371 0.2113611 -1.6025932 -0.27523708 -0.19497758 -0.74527913 -0.5004749 0.18846118 0.5237833 -0.54603297 -0.6640659 -1.0456998 -0.19326685 -0.11458884 -0.20373629 -0.038822696 -0.2516787 0.33756015 0.95209706 0.6469956 -0.50732744 -0.13955605 -0.25752905 1.0147544 -0.18357214 0.2681983 -0.6845195 0.07884694 -0.5829745 0.0010276453 -1.4578273 -0.93961084 -0.7075301 1.0883163 -0.26258552 0.49882218 1.3564894 -0.65626264 0.5407261 -1.3166572 1.4714793 -1.493633 -0.0015100108 0.058366075 0.33617833 -0.41323093 -0.3681712 -0.47397462 0.5707995 -0.01132045
1842 0.44635165 0.6374563 -1.1292624 0.2096511 0.96948403 1.1447701 0.1251776 -0.32940838 -0.6081052 -0.0496635 -0.70866793 0.35116217 -1.2557815 -0.4507285 0.54218256 -0.97298396 -0.29974884 -0.23506 0.49220723 -0.8737329 -0.16353968 -0.9554698 0.11907922 -0.90326196 -0.78086025 0.3391145 -0.8431727 -0.11349979 -0.6562016 0.44003767 0.38082117 -0.38112426 -0.03651374 1.3530891 -0.7424567 0.9842063 -0.68038493 0.029245755 -0.17259541 0.7236655 -0.57882667 -1.058976 0.47480786 -0.39024 -1.0409607 -0.26626194 -0.4649409 0.42273396 -1.4085894 0.13480538 1.0856055 -1.54621 -0.55156666 -1.1492084 0.21198484 -0.044610884 -0.07113102 -1.1908928 -0.976566 1.2766147 -0.5226943 0.0037351246 0.7599561 1.0751362
972 -0.3342864 0.18580493 -0.48022446 -1.4956883 0.49535626 0.79229033 -0.6006471 -0.73040843 0.48245353 0.4681876 -0.5520058 -0.5766582 -1.1287498 -0.37238982 0.1691913 0.4412733 -1.3635291 -0.32611915 -0.6591713 -1.2734506 -1.4115276 0.3531589 0.06883722 -0.4654628 0.56819504 -0.2778469 0.03756318 0.5551312 -0.33516926 -0.24024817 -0.48565057 -0.34423402 0.31393623 0.37987152 -1.1104909 -0.27391043 -0.44898322 1.039514 0.053770326 1.5559406 -0.46581072 -0.8761003 -1.1828632 -0.014875061 -1.4607627 -1.3262727 -0.0068805655 0.15877406 0.3313961 0.50786394 -0.31335166 -0.521841 0.9392759 -1.6361543 0.39715096 -0.7441598 -0.15281685 0.08846864 0.10540326 0.5460326 0.4648952 0.095303215 0.28890932 0.8707549
3335 -0.16378431 0.19769827 -1.6470515 -0.5152484 0.49049845 1.5872325 0.22338314 -0.43798187 0.9231371 0.3769769 -0.3284022 0.5119572 -1.1502678 -0.6325601 0.15131365 -0.3101196 0.04113438 -0.7144076 -0.40927416 -0.81032443 -0.13572891 -0.074716374 0.48091894 0.2687811 0.02423403 0.38018927 0.3314077 -0.47350758 0.29916218 0.48577952 -0.9303228 -0.12040631 0.4843772 1.438781 -0.31500018 0.60150635 -0.7713948 0.48267776 -0.10307039 0.5014024 -0.27288887 -0.055836048 -1.6651759 -0.69869524 -0.9339702 -0.1551809 -0.5317428 0.054398477 -1.1476653 -0.12018972 1.455476 -0.73115796 1.2194186 -0.72851986 1.304189 -0.9354302 -0.17239 -0.42988017 0.38133392 0.65488064 -0.37602708 -0.42411253 -0.1101612 -0.19863912
3394 -0.26071063 1.1067113 -1.4936581 -2.1734087 -0.20221949 0.33519194 0.0029045008 -0.39845043 -0.587483 -0.58437485 0.17687449 0.12447341 0.056522485 -0.11788677 -0.04421936 0.09580765 -0.729229 -0.69699925 -0.64389163 -1.2199548 -0.08025511 0.17235398 0.36010244 -0.016747287 0.15273966 0.4144313 0.2137966 -0.5750093 0.47259963 -0.33606768 -0.14827853 -0.611762 1.6719421 0.47131595 -0.9237353 0.3636114 -0.37220794 1.2041941 -0.354763 0.50001365 -0.13005415 0.3628097 -0.14731333 0.38631132 -1.1502366 -2.0591366 0.22895712 0.34864038 -0.67133015 0.3655141 1.0677289 -0.42026243 0.64208925 -0.54985714 0.7510651 -0.749912 0.12122689 0.3741664 0.12005865 0.09534812 0.690276 0.2227557 0.47491416 0.78996724
951 -0.48124892 0.18400875 -0.9968045 -1.0817894 -0.06332285 -0.24097621 0.14101616 0.36143902 0.5161607 1.2668151 -0.015333039 -0.14948362 -1.0694156 0.29478046 -0.7893572 0.62080026 -0.2678332 -0.5934431 0.008378637 -0.53613776 -0.6084178 -0.71091616 -0.1845203 -0.4364149 -0.66636086 -1.2392943 0.35899922 0.35531765 0.03333823 0.23409188 0.282503 0.064470045 1.0629772 1.4730603 -1.0621457 -0.09808545 0.0951722 -0.12924996 -0.06129695 0.67306805 -1.6737179 -0.5398807 -0.80908525 0.56223553 -0.085198864 -2.060473 -0.114835136 -0.100234784 -0.37896568 -0.030873755 0.08780114 -1.2697918 -0.06160551 -1.4867188 1.0666871 -0.7333064 -1.126112 -0.50813574 0.41255674 0.52587867 0.21534881 -0.70450574 1.1069816 0.16810976
3907 0.60540146 0.38879105 -0.8146193 -0.88154525 0.7287637 0.37059474 0.07582277 -0.109895214 0.58667666 -0.35863268 -0.6016149 -0.25085512 0.11545176 -0.3563548 0.0643685 0.085596874 0.1598169 -0.74814665 -1.1153295 -0.9085087 -0.9539767 -0.26283568 0.17314504 -0.28835267 -0.30766737 -0.32103267 -0.13297541 -1.1015177 0.17794077 0.9916128 -0.8560053 0.71582514 0.26096043 0.47364414 0.55526745 0.69597656 -0.0044720196 1.0417755 0.8072659 0.2861454 -0.6748896 -0.8108447 -0.34547102 0.092606746 -0.71157956 -1.6014564 -0.29301724 0.1502011 -1.7751405 -0.60612565 0.30673683 -1.5745709 -0.21031637 -1.6465465 1.447587 -0.501049 -0.18122947 -0.29767144 -0.17411485 -0.11778962 0.08407986 0.1544313 0.17399603 0.2310154
2238 0.59365326 -0.2481734 -1.1636753 -0.67111635 0.41374284 0.2743736 -1.3596721 -0.3838917 0.25455216 -0.12049928 -0.3982141 0.8992605 -0.72442615 -0.6885927 0.5070026 -0.6613004 -0.24117884 0.57651395 -0.7080452 -0.9846751 -0.26441285 -0.5422142 -0.032465804 0.4174619 0.22539443 0.4207046 0.8424396 0.29036856 0.13631247 0.11997572 -0.9161117 0.12545404 1.1923349 -0.071477905 -0.3241885 1.0820086 -0.058979906 1.1815583 -0.33716056 0.879107 -0.45086366 -0.830674 -0.3163625 0.02084961 -0.13443369 -1.3155843 0.39009446 1.2136843 -0.7371505 -0.56410915 0.93069065 -1.8313792 0.51596886 -0.35586634 1.0108985 -1.2635612 -0.7394615 -0.83817166 0.3834765 -0.11635837 -0.17392099 0.054522794 0.62307304 0.069265336
1956 -0.21995902 0.6868053 -0.80555326 -0.9739958 0.3937972 -0.8730937 -0.2751546 0.34082586 0.44905365 -0.9063154 -1.2605892 0.17041269 -1.2871486 -0.26103672 0.26590097 -0.056539077 0.09746733 0.03661877 -0.51687306 -0.3882739 0.23248243 -0.40319252 -1.2677686 -0.45834127 -0.3460271 0.16669068 -0.482755 -0.4634782 0.23386858 0.13354544 -0.008716223 -1.1220585 0.8618752 0.0024767907 -0.6116308 0.89421475 0.026414499 0.58159727 0.17837442 0.5821194 -0.07502359 -1.2508327 -0.7971738 -0.33476737 -0.7523211 -1.1137601 -0.51919955 0.7991943 0.10973218 0.23966518 0.6905826 -0.10846974 0.25252262 -0.17691226 0.3246221 -1.0841517 -1.022029 -1.0038201 -0.18484393 -0.0129648 0.46575966 -0.43890074 0.4404473 -0.0041627777
2009 0.42516467 0.95393544 0.4152601 -1.6163259 0.8653123 -0.7921468 -0.11747771 -0.123293415 -0.19229673 0.23292445 -1.19575 -0.81779796 0.23932639 -0.06825912 -1.0255324 -0.46882942 -0.103385665 0.37319708 0.063967206 -0.40182635 -0.41865906 -0.48256904 -0.1918102 0.71029687 -0.5047832 -0.80322534 0.16171427 -0.17795381 -0.042483985 0.584286 -0.03993237 -0.57670903 0.688266 0.28344476 -0.9465194 -0.46415564 0.07366971 -1.0826216 0.14457734 0.6630493 0.6272342 -0.92261016 1.0951524 -0.24822491 -0.08085785 -0.7687207 -0.8957882 0.10927874 -0.2426935 0.045392346 0.9819915 0.21527968 0.11602511 0.20615518 0.43844593 -0.19144253 0.31819507 -1.1419321 0.5965774 -0.43199882 0.81425464 -0.40134355 1.099949 0.07430026
1955 -0.15723418 0.7182993 -0.7286897 -1.0151882 0.34929046 -1.0534285 -0.32823914 0.29341 0.4467037 -0.91401476 -1.2148252 0.2189935 -1.2417407 -0.24067198 0.24401288 -0.067064814 0.15362033 0.0883404 -0.47891718 -0.3020566 0.29062745 -0.46181005 -1.2023549 -0.46733552 -0.28883895 0.2781581 -0.43405795 -0.46256292 0.31253543 0.09359798 0.051049247 -1.0668664 0.87225026 0.046773244 -0.619477 0.9340401 0.00872945 0.5929244 0.21936813 0.61265427 -0.10107274 -1.1556915 -0.8064513 -0.30845287 -0.68711895 -1.1119721 -0.42128083 0.8210425 0.04023088 0.23188636 0.7285299 -0.15583031 0.23011036 -0.25627258 0.32586744 -1.1728342 -1.0105978 -1.0594686 -0.25052884 -0.092415586 0.314322 -0.41620672 0.37008622 0.1250493
763 -0.019256432 0.3493716 -0.5238354 -1.423735 -0.55604076 0.723788 0.13238522 -0.019302538 -0.25430542 0.2031602 -1.0079721 -1.5646809 -0.43531325 -0.4000854 -0.23687442 1.1509684 1.1584905 -0.32234085 -0.030129477 0.3495691 -0.101575576 -0.42082202 -0.21056677 0.28713477 -0.23839365 -0.47289777 0.14416331 -0.18238081 0.03527062 -0.17204732 0.4608272 -0.4937873 0.4907506 0.7011535 0.27555305 1.9383157 -0.5612263 -0.4793667 -0.5668602 0.45770848 0.4062943 -0.19708283 0.098802924 -0.12548277 0.12895809 -1.0079925 -0.7481302 1.5556402 0.28939453 -0.3415776 -0.15129134 -0.3237444 1.095669 -0.31038404 0.51321924 -0.36572787 0.11790547 -0.07730547 0.85906273 1.199312 -0.13740684 -0.1283029 -0.51497793 0.4706414
2017 0.48449227 -0.656833 -0.43031648 0.011001344 -0.89137864 -0.47075763 0.070446774 -0.298614 0.027003296 0.10528632 -0.68344367 0.15611528 0.4921816 0.11780876 -0.3854811 0.14805493 -1.2044376 0.12079764 0.028886285 0.59012514 0.28309295 0.35403255 -0.24993218 0.35257658 -1.0191894 -0.29858798 -0.106542364 -0.4655162 -0.5339403 0.77555156 -0.20777832 -0.7462446 -0.3545245 0.52138126 -0.10303533 0.48928103 0.14654924 -0.041935652 0.010055349 0.043562695 0.33927718 -0.7597951 0.78250366 -0.98785836 0.486717 -0.88061684 -1.3955251 1.3506558 0.66558534 -0.910044 0.55149 -0.25225163 -0.334755 -1.6249301 1.3358853 -0.08643498 -0.454474 -0.8783142 0.43505093 -0.019528532 0.23512405 -0.22184086 -0.68761337 0.7908476
3122 -0.27077135 -0.32524744 -0.39732283 -0.21834417 0.18196379 0.38116947 0.86202013 0.578725 0.35216272 0.27578366 -0.48151952 0.35229072 -0.07234996 -0.73315245 0.19627278 0.3039962 -0.14141323 0.35816136 0.6006342 -0.38745007 -1.8058012 0.2838839 0.26347435 0.42583898 -0.9924743 -0.4554252 0.2784987 -0.21931164 -0.07740531 -0.697447 -0.5549689 -0.2278399 0.73966783 0.52465516 -0.22148667 0.2368133 0.31301883 -0.94220823 0.38346198 -0.12647869 0.00016102615 -0.3019766 -0.17531799 0.033685047 -0.31555468 -1.7025476 -0.35181516 1.004282 -0.4801474 0.13331975 0.07773795 0.61692876 0.19948633 -0.38429224 -0.30154425 1.048518 0.22772269 -0.5860173 0.4191907 0.08076172 -0.48992112 0.07750885 -0.2994463 0.13433436
2382 0.22585474 0.16545905 -0.5878176 -0.7606801 -0.2700035 -0.1065666 -0.20999318 -0.6300472 0.32486457 0.21464555 0.32563058 0.3586061 0.5911442 -0.5870379 -0.1680817 -1.6320386 0.30299821 0.5133569 0.4225216 -0.619735 -0.72777003 0.11065805 0.4045067 0.3491963 -0.20446761 -0.20921747 -0.56020653 0.046458304 -0.16313773 0.04673295 0.0801441 0.4119511 0.72102416 1.0050749 -0.15697724 0.40909657 -0.64699656 -0.9531803 -0.16640756 -0.53142476 0.11534949 -0.90033495 -0.5271321 -0.7752336 2.0892472 -0.74774086 -0.9376475 0.7287796 -0.75251085 0.21435572 0.024013987 -0.055627644 -0.1399403 -0.33032265 1.2672763 0.72852534 -0.087855935 -0.32892555 -1.8585606 0.13530025 0.60868496 -1.0793859 0.04622646 0.6207039
3852 -0.022865389 -0.036474705 0.4119235 -0.78889716 -0.5659784 0.94981325 0.07467801 -0.563231 0.40719032 -0.31118852 0.035883963 0.07423877 -0.31167063 -0.60597384 -1.0528029 0.37143803 -0.2431099 -0.23578534 0.11154498 -0.93857175 -1.1732327 0.14166749 0.56802744 -0.12136904 -0.70387477 0.92443746 -0.5723067 0.37806106 -0.49195334 0.3207676 -0.18043673 0.9184067 0.7515708 0.91955173 -0.022262456 0.912541 -0.14145254 0.7880938 0.51461804 -0.44850948 0.108067594 -1.2921398 -1.1715868 0.15236871 -0.17578459 -1.0819237 -0.9769488 -0.12415913 -1.1139094 -0.965856 -0.7679018 0.21623388 -0.07808439 0.01846897 1.0446862 -0.53262496 -1.157206 -0.33590195 -1.160488 0.030863753 0.15040356 -0.25749344 0.1911075 0.8069521
37 0.33817336 -0.8149779 0.8190579 -0.73729646 -0.4051127 0.3625171 -0.31578058 -0.6121453 -0.43075868 0.5723654 -0.4076555 -0.53811705 0.06494319 -0.004461255 -1.0090137 -0.58268124 -0.23391594 0.66705066 -0.44169226 -0.117979646 -0.93820065 -0.033701494 -0.1087129 0.10640508 0.13403895 -0.9330009 0.89623654 -0.55215544 -0.3410631 0.15591538 -0.16197994 -0.7555708 0.49404806 0.33216238 -0.22885823 0.8265404 -0.50860286 -0.3756083 0.6072201 0.017060366 0.18567769 -0.79798746 1.324016 0.44771937 -0.6587687 -0.020034013 0.2279071 0.21545537 0.5240019 -0.7912715 -0.18769549 -0.65369385 0.24733493 -0.18653998 1.5092099 -0.19032258 0.9970727 -0.90794355 -0.28808585 0.49741474 0.2466486 -0.027830422 0.24495505 0.56780887
413 0.056785922 0.22632897 -0.6173787 -0.31110093 -0.552686 0.9273828 0.7102019 -0.28226277 0.25668636 -0.11287248 0.02186758 1.6020725 0.5724069 -1.9691344 -0.52308965 -0.24172127 1.3128979 0.43637282 -0.2458302 -0.20474765 -1.3662176 -0.16698012 1.0027349 0.4113558 -0.7645211 0.86068946 -0.48047248 0.068529524 0.3385801 1.3181756 -0.27718338 0.15449044 -0.21963292 -0.06275623 0.13619378 0.12367231 0.4056316 0.621572 0.055552315 0.07930126 0.86088026 -0.23508137 -0.2564441 0.6763249 -0.38516033 -0.8213747 0.44547352 0.044656835 0.7723239 0.47278625 -0.13955261 0.44965076 -0.81150436 -1.3326337 1.1279142 -0.5194055 0.5344657 0.1820257 -0.91650426 -0.26161256 -1.0469509 1.0758417 -0.08257337 -0.43005887
1306 0.3561934 1.1223695 0.12340022 -0.43316206 0.8252798 0.6428161 -0.15814292 -0.5608856 -0.92030555 0.1765215 0.070056215 0.8928503 0.51279575 -0.4009825 -0.7395441 0.7814498 0.5973497 0.5685145 0.2883205 -1.6244887 -0.54373294 -1.0408487 0.33326587 -0.56610626 0.4830126 -0.113074325 0.42718157 -0.24279569 -1.1275005 -0.3109391 -0.06709453 -0.6603332 -0.41402206 0.42088142 -0.09050199 0.7959381 -0.66252834 -0.56918824 -0.33957553 0.14924467 0.8135479 -0.19782925 0.43804502 -0.2087158 0.45180687 -0.7773766 -0.27990136 0.67564976 -0.6322956 -0.90053535 0.87085783 1.0892725 -0.3025114 -0.2889487 0.20522635 -0.46778238 -0.9322063 -0.4339078 0.62015873 -0.024177179 0.30864665 0.03158196 0.15759234 0.34911734
470 0.5454845 0.9287303 0.23054592 -0.910322 0.27491432 -0.25237203 -0.5366074 -0.019877462 -0.7899604 1.5196431 0.70145214 0.874168 -0.1700464 -0.7803287 0.38362402 -0.06947968 0.51324755 -0.4327805 -0.76530015 0.42561683 -0.026928103 -0.51458097 0.43482292 0.13002086 -0.44821823 0.035687476 0.7187682 1.2791345 0.10195054 1.1795143 -0.75469935 -0.29450318 -0.29593328 0.00085038156 0.62979174 0.43687025 -0.4841926 -0.6632944 0.42130497 0.21089976 0.58352053 -1.2459483 -0.5207039 -0.13672191 0.0789149 -0.61658525 0.6625416 0.41336092 -0.5822391 -0.20174238 1.2983518 1.6410596 -0.29972026 -1.9003913 1.103836 -0.34263235 0.5220325 -0.699521 1.1801066 0.6061868 0.59530014 0.10463363 0.88321537 -0.99551976
2322 0.08131505 0.005715216 0.36722204 0.41604045 0.2065915 -0.17039607 0.2010386 -0.13693722 1.0656171 -0.84006387 0.31161997 -0.39148197 0.31935957 -1.3395317 0.049862344 -0.5851091 0.4299672 0.57693946 -0.14510663 -0.14130425 -0.5297647 -0.8175491 -0.19667979 0.9267121 -0.39693674 0.22534798 -0.009155174 1.2813678 -0.9612345 0.27084956 -0.43415615 -1.0532231 -0.49730542 0.03853889 -0.17984106 1.2380738 0.31559205 0.96661496 0.3174586 0.5063046 0.52056783 -0.23729658 -0.9974967 -0.49896866 -0.4369726 -0.72077936 -0.41381988 0.6750047 0.450621 -0.9839816 0.20180498 -0.90235525 -0.7799515 0.9686416 0.33068684 0.49027064 -0.12917967 -0.3503343 -1.0519712 0.3692796 -0.54073656 -0.48749617 -0.8194352 0.9485563
1576 -0.9343362 0.51885533 0.058203068 -0.27548546 -0.19806863 -0.12028049 0.39439985 0.9727667 -0.32624334 0.26179785 -0.40691093 -0.20448637 -0.16762036 -0.45548984 0.4015323 0.00055076403 -0.03915332 -0.1559362 0.30907962 -0.86345863 -0.15081249 -0.044332713 0.2572004 0.094914734 -1.077496 0.5464075 -0.32585433 0.28262752 -1.1633176 1.525122 0.20901504 -1.5669563 0.61967033 0.51049805 -0.13617189 -0.2501307 -0.002644457 0.57526547 -0.7031644 0.003012382 1.2319393 -0.4257919 -0.3865046 0.9524822 0.84881794 -1.537027 0.31875402 -0.47820756 -0.9386739 -1.0004618 0.76707757 -0.29992715 0.3790033 0.045101065 0.4551883 0.16529132 -0.1620146 0.7857147 0.24277042 0.44067967 0.2801786 0.60334194 -0.27772233 0.7045198
1890 0.28166744 0.3139766 0.32132566 -0.7842264 -0.23495139 0.6500179 0.19639806 -0.91434675 -1.3446403 0.51740676 -0.44870412 -0.8656153 0.5297621 -0.8193912 0.3742948 -0.752315 0.49979666 0.30532023 -0.76257795 -0.8005641 0.49149317 -0.44207287 0.5699319 0.8208674 -0.33625218 0.43492207 -1.181589 -0.10562175 -0.5916359 0.49392784 -0.5897906 -0.8462332 0.2585177 -0.8293955 0.07937454 0.21969107 -0.85052025 -0.13901502 0.39731959 -0.035706345 -0.06222827 -0.008552998 -0.023632128 1.2445017 -0.5932937 -0.6199196 -0.2669714 0.5967246 -0.7733191 -0.66347414 1.2019268 0.43795988 -0.11549288 -0.27830413 0.15962112 0.07404507 0.76362205 -0.13778764 -0.5856602 0.7570808 0.36640942 -0.15802178 -0.8780865 0.016012201
2034 -0.62261957 1.1788615 -0.0755836 -1.4559672 -0.25585422 0.47762072 0.323764 -0.08151186 0.8844466 -0.5878697 -0.036445893 0.76406765 0.23499392 -0.8024208 0.41335934 0.5286225 0.6931044 -0.5329015 -1.2208716 0.033364877 0.28525922 -0.62674975 0.20618622 1.1451074 0.63850075 0.5620757 0.33715367 1.5145192 -0.89106834 0.6398267 -0.38270578 -0.41401327 -0.4684969 0.46987042 -0.16295509 -0.6570976 0.48760548 -0.45993653 0.15236315 0.4121203 0.5838743 -1.5431075 0.38242468 -0.6972834 -0.8025135 -1.2783446 -0.07108088 0.11262694 -0.5374633 0.690157 1.8152227 0.8177471 -0.028624171 1.0715921 1.1139197 -0.30332452 0.9285299 0.9760914 -0.91840154 0.50960124 -0.9060634 0.36255762 0.05496982 0.698107
42 -0.5168322 0.93640673 0.04775539 -0.19866222 -0.6917411 0.7383153 0.30932906 0.4977968 0.051371522 -0.6306527 -1.1164734 0.13739681 -0.018159593 -0.32396537 -0.8137762 0.12799427 0.2651951 0.16170317 0.43045732 -0.67726934 -0.1099345 -1.0051167 0.4078321 0.44140816 -0.7965365 0.06767743 0.2454343 0.0750695 0.6334326 1.1775982 0.53361005 -0.059579045 -0.35366985 -0.6523093 0.14461134 0.76300985 -0.7440672 0.48358536 0.2409781 -0.544231 -0.10483061 -0.0535308 -0.79607975 0.56682223 0.11417233 -1.5858506 0.2447383 -0.5617995 -0.4085903 0.7636889 -0.0057977308 0.99238473 0.9366998 -0.0531352 1.2588869 0.46617138 1.3967824 -0.6906282 0.74079394 0.4111835 0.089844726 -0.39245063 -0.11918946 0.98076856
345 0.19428697 0.81721365 -0.20362648 -0.17633113 -0.343282 0.9063081 0.17107084 0.36119345 1.5144186 0.2842209 0.5039567 0.42576048 -0.5675099 -0.51115316 -0.24560484 -0.022891453 1.1051157 0.60419106 0.029878573 0.032372724 -0.4353108 0.21583101 0.6789055 0.94729346 0.11412588 0.2806686 -0.4441958 0.24746756 -1.0660684 0.6004099 -1.0729175 -0.4851333 -1.0578625 0.086456574 0.12096585 -0.2264215 -0.47218075 0.20656486 -0.13026321 0.21414778 0.55354995 0.42647284 0.84822965 0.4910309 0.29348984 -1.0875654 -0.2503539 0.44857356 1.0873183 0.34123662 0.54912657 1.1521119 1.5221176 -0.5174504 0.98201984 0.1482516 -0.5296147 0.0712991 -0.63204104 0.15519772 0.49405128 0.44907963 -0.14372829 0.8588715
2661 0.4566995 0.2860917 -0.11891097 -0.21417773 1.0923483 0.74157083 0.054962397 0.5762499 -0.14526525 1.6163818 -0.42214423 -0.7610021 -0.14538479 -0.04087139 -0.39060327 0.23506324 0.9973605 -0.13715954 -0.1187129 0.36909845 -1.0366249 -0.5661917 -0.3132203 -0.25302038 -0.7287322 -0.24900319 -0.37964138 -0.22422908 -0.4403659 -0.1876481 -0.47154856 -0.3682665 -0.34240907 0.2634703 -0.89451694 0.8599481 0.5385197 1.0613407 -0.13167688 0.01114815 0.87593925 -0.45293564 -0.26512352 1.1232682 -0.001785123 -1.1840799 -0.40131733 0.857885 0.8960513 0.6394181 0.1610161 -0.021228878 0.09549417 -0.5581079 0.65137494 -0.787714 -0.19167276 0.9906471 -0.3958836 0.42964503 0.5801148 -0.63731474 0.33620197 -0.04849278
2556 -0.12696278 0.6067833 -0.902611 -0.9449066 -0.30376664 1.0596447 -1.2075572 -0.9306428 1.0779902 1.0335665 0.04711762 -0.009479612 0.18605423 -0.5232796 -0.2707431 0.32499 0.14739743 0.5186299 -0.10722144 1.0208403 -0.44473615 -0.16470864 -0.13601556 0.3312472 -2.1268294 0.10390493 -0.8985809 -0.3498017 -0.42473957 0.87643796 -0.91735286 -0.43651995 -0.45730737 1.2952056 -1.6747307 0.14578304 -0.88209987 -0.22592375 -0.74475014 0.40875053 -0.5224459 0.2970236 -0.45093894 0.75941813 -0.334211 -0.62696975 0.8041831 -0.44004756 -1.4432206 -0.01461667 1.146944 0.28424898 0.702192 -0.18039191 1.0664666 0.21937121 0.8696932 0.16366372 -0.6416854 -0.18025546 -0.32154283 -0.83161694 -0.5743343 0.43595475
3486 -1.9919378 0.6554201 0.24662934 -0.6377478 0.79371375 -0.1441009 -0.6500281 -0.45218098 -0.4596974 -0.35363647 -0.12467684 -0.029212996 1.3395354 -1.1398036 0.7937276 0.29126382 1.687935 0.0718379 0.88552076 -0.6853788 -0.82331294 0.40659085 -0.18698268 0.3747471 -0.6729505 -0.42612648 -0.27829742 0.19344762 -0.52161795 0.1303212 -0.52952707 -0.12089796 0.037062213 -0.6776064 -0.5425131 1.351774 -0.25055984 -0.89044076 -0.7383147 0.3701311 -0.51535827 -0.6429745 0.54903895 0.8715592 -1.1011221 -0.87357545 0.6995939 0.7866181 0.44002625 -0.42323643 0.076500714 -0.2968318 -0.46867448 -0.9925527 1.0830866 -0.3021492 -0.16217425 0.043881826 -0.06403031 -0.07374069 1.0711846 0.28342414 0.030631162 0.3717164
3830 -1.4358035 0.81087476 -0.22539823 -0.33903554 -0.70423734 -0.57204664 0.71472555 0.63158137 1.1410562 -0.062179927 0.13217516 -0.13812983 0.8397778 -0.9115477 -0.8848815 0.43650514 0.70178056 -0.41630206 -0.5627285 -0.83910435 -1.0931172 -0.8387001 0.13463417 0.22596855 -0.24521971 0.15878956 0.5290532 0.9001025 -0.6456283 -0.3747532 0.039686263 -0.5545396 0.57647485 0.36305958 -0.9652865 0.15337862 1.8260751 0.29026473 -0.30390772 0.83243227 0.18369916 -0.82530147 0.058596738 0.60062367 -1.1039466 -1.4706166 -0.6775832 -0.25071776 0.40983158 0.015666569 -0.70395046 -0.8610854 0.06817369 -1.0289772 1.473495 -0.31788462 0.13651483 0.34985796 -0.6611645 -1.0787936 1.7108787 -0.6311312 0.77804494 0.15621984
3313 -1.1050692 0.66633916 -0.6213356 -0.05774435 0.4255995 0.37068582 0.1608378 -0.921642 0.86378 -0.048110265 -0.1476386 0.19692944 0.6982007 -0.42852238 0.74240375 -0.040613588 1.3735794 0.3391094 0.068778224 -1.3046583 -1.0376612 -1.0806614 0.6616866 -0.3845949 -0.23337652 0.08693479 0.7910766 -0.030577 -0.034356087 -0.078236945 -1.8795745 0.64754856 0.2757355 0.2494384 -0.2174457 1.2973133 1.3220474 -0.4910275 -0.52889293 0.6029218 -0.097176954 -0.6377001 -0.52760017 -0.37947172 -1.8027103 -0.6116063 -0.23826577 0.40998778 -0.21623616 -0.6171951 -0.7007431 -0.26876706 0.51856124 0.05228688 1.9083565 -0.26788622 0.49678403 0.4726843 -0.7647371 -0.0155757135 -0.12588976 -0.549004 -0.78597003 0.019855803
3272 -1.521404 0.7945144 0.26626435 -0.31923288 -0.23258401 -0.052746326 -0.16143188 -0.7539477 0.37193006 -0.6046803 0.7734967 0.7853691 0.60220563 -0.27492458 -0.2936206 0.12806559 -0.049876016 0.49804503 -0.107273996 -1.5297247 -1.4798557 0.047233984 0.03740806 0.010970565 0.08786887 0.12580441 1.5585421 0.4199685 -0.96906453 -0.3521402 -1.2474641 0.014102484 -0.45435634 -0.0055701346 -1.5606937 -0.42834854 1.3628631 0.15380414 -0.38254586 0.98759305 0.76004475 -1.6166742 -0.20611633 0.27162164 -1.0748541 -1.5852158 0.20819513 -0.2669842 0.23413853 0.09733034 -0.08331995 -0.13086466 0.100052685 -0.19209933 1.2984297 -0.44993654 0.9617658 0.3991199 -0.1325392 0.2848311 0.16496004 -0.27763805 0.5594812 0.51834255
3757 -1.563045 -0.6373011 0.044590943 -0.49064606 -0.6326664 -0.36472583 -0.65082705 -0.5677346 1.2667301 -0.6658128 1.18001 0.9139537 -0.23177788 -0.90272707 -0.21029775 0.15560487 0.7145161 -0.108750544 -0.04293365 -1.4432269 0.33777636 -0.042461764 0.11769015 -0.072552405 -0.45051917 0.14039814 0.7695318 1.27772 -0.20027578 -0.5303433 -0.8326862 -0.4542575 0.22943033 0.18841992 -0.66504097 0.7720991 0.5081108 -0.15978679 -0.81284314 -0.04833187 0.8177721 -0.8168355 -0.7684481 -0.045340475 -1.6141486 -1.7697217 -0.13782421 0.7076356 1.040943 -0.63790035 -0.084318705 -0.1465616 -0.004325683 -0.031340554 0.9472039 -1.2908841 -0.5816607 0.4270836 -0.12984747 0.2747337 0.7730203 -0.6664251 0.32200134 0.58223414
3739 -0.36508992 0.60809815 0.6378294 -0.6037971 -0.35094517 -0.13718197 -0.466429 -0.53628767 0.8963556 1.0620847 1.1394898 1.459005 1.1963543 -1.4436195 -0.29736894 0.05271356 1.0126848 -0.41704404 -0.39847568 -1.1261289 -0.8546927 -0.49233815 0.45242807 0.46022004 -0.010317481 0.020891037 1.6906697 0.27036914 0.021541068 0.1660983 -0.5033505 0.37120262 0.36174455 -0.13333666 -0.9947854 0.86171985 0.28450578 -0.5984116 0.42544147 1.3392314 -0.03982707 -0.8768463 -0.024029994 -0.19969416 -1.4727778 -1.3226681 -0.41305488 -0.48141545 0.90902257 0.061258655 -0.06890756 -0.7859728 -0.41233099 0.25742146 1.0672517 0.039794836 -0.43926814 -0.45938548 0.29506087 -0.44670212 -0.36977687 -0.15806538 1.0245447 0.1675558
3464 -1.4766198 -0.09442423 -1.3416013 -0.8018994 -0.14841174 1.0874093 1.0032349 -0.009319149 0.4757344 1.124792 -0.1243366 0.7574174 -0.711394 -0.89572537 0.057975862 -0.99834836 1.9310122 0.68528134 0.9797307 -0.89894 -0.13158686 -0.11376502 1.2594153 0.12487444 -0.6194158 -0.017035054 0.8322778 0.5495764 -0.6002104 -1.0921638 -0.854117 0.63368696 -0.3233619 0.92623085 -0.6240893 1.3185021 0.56252027 -2.1880593 -0.6866767 0.44535843 0.4593661 -0.5994261 -0.5949247 -0.32664067 -0.6101648 -0.686247 -0.40262768 -0.27023035 0.45760113 -0.55150425 -0.29710624 -0.7541227 0.08276901 0.2801852 1.1299648 -0.014310538 0.31533784 -0.3052569 0.15548699 -0.23431313 -0.68507606 -0.45223123 0.060334478 -0.20312098
2635 -1.4683845 -0.26240554 0.4787743 0.915263 0.23373058 0.580352 -0.13933927 -0.95244086 -0.053932328 0.007724124 -0.13841048 0.77541304 0.09324125 -0.52959716 0.0015379931 0.022799615 0.15446283 0.06344453 0.38164258 -1.1564366 -0.7726104 -1.3246044 1.4059484 -0.6274027 0.0015196992 0.15694311 0.19013184 1.668097 -0.64871323 -0.9049718 -0.7066296 -0.40184474 0.041721128 0.561078 -1.147397 0.6424251 0.9337973 -0.2578107 -0.5117035 0.35849223 -0.09454368 -0.9741938 0.779157 0.17886512 -1.6864731 -1.3181659 0.36310795 -0.06477966 0.43244117 -0.7009814 -0.55232644 -0.39278185 -1.0243181 -0.2840585 1.2241861 -0.3912472 -0.07797778 -0.66531634 -0.7940577 -0.36048478 0.6875617 -0.11873322 -0.075102 1.3371321
530 -0.80899715 0.8732801 1.2157732 0.14535582 0.028556993 0.65994763 -1.3039382 -0.46920335 0.5363835 0.3820269 0.08842459 -0.18666682 1.2599891 -0.60776335 -0.10311393 0.36307478 -0.06698996 -0.27770644 0.36318177 -0.6210743 -1.246582 -0.66486996 0.26211065 -0.7285254 -0.7503149 0.67700464 0.7992331 1.4897474 -1.2081054 0.152696 0.21207745 -0.37224787 0.14339375 -0.12402198 -0.4828094 0.31976613 0.28465867 -0.22200474 0.32203734 2.3218312 -0.12836576 -0.48164228 0.38460618 0.6605867 -0.9463262 -1.5583473 -0.6165614 0.3601847 0.8747955 -1.1903139 -0.17037246 -0.19186053 -0.6408716 -1.2854431 0.92299825 -0.14278762 -0.55723715 -0.33034575 0.60645103 -0.34907487 0.26071543 0.05042609 0.8762828 0.64919287
3044 -1.6401031 0.18277705 -0.38748446 -0.8367475 0.3835721 0.3361072 -0.10632667 -0.12852065 0.8324227 -0.53818315 1.0175067 0.60186124 -0.049188454 -0.2681421 -0.90597063 0.60950667 2.2634835 0.25790423 0.059289303 -1.4554796 -0.7952337 -0.9133088 -0.005138674 -0.16888724 -1.0413551 0.34050548 1.1922834 -0.4216767 -0.5899569 -0.21094574 -1.1041359 -0.070963696 1.130809 0.02746378 -0.005063908 0.409536 0.4909335 -0.38614228 -1.34766 0.19962576 0.6810033 -0.81890666 -0.59862715 -0.4359051 -0.29264393 -1.495837 0.3266852 0.38048154 0.20220886 0.037310757 0.012554175 0.09284118 0.82920337 0.3785727 1.5116495 -0.14486422 0.5521643 0.2817296 0.020476742 -0.17128058 -0.0050333007 -1.0950298 0.7654478 -0.40849686
1313 -1.2814435 1.0726029 0.02570816 0.6905762 -0.14087659 -0.049927965 0.33078074 -0.43446907 0.47060215 -0.23949327 0.11029311 -0.048039213 1.4096776 -0.730012 -0.11849602 0.5796067 1.2968433 -0.025354145 0.075929426 -0.90354717 -0.9031594 -0.559664 0.54148775 0.6682621 -0.43998078 0.26627755 1.4704856 0.60671556 -0.5445624 -0.63711613 -0.8289212 0.7090218 0.65326184 0.8952328 -0.59417415 -0.3283848 1.1501671 -0.19764534 -0.5866322 1.1575397 -0.107928656 -0.86616725 -0.20573567 -0.24855386 -1.6589472 -1.338156 -0.28921005 0.6515429 0.26593506 0.6245977 0.7673 -0.15518703 -0.12524271 0.2839717 1.3697441 -0.7651258 0.113063544 -0.20575014 -0.9735154 -1.4245478 0.28685495 -1.4137186 0.2463938 -0.58359706
1835 -1.4890804 -0.7162668 -0.09767453 -0.011658254 -0.14966445 1.0513496 -0.92825776 0.64649254 1.317503 0.33537003 -0.0416044 0.7030684 -0.408317 -0.56090504 -0.31691164 0.4830481 0.5095104 -0.00591182 0.22943486 -1.1833868 0.27126518 -0.8001943 0.12149978 0.23881517 -0.64429474 0.4937951 0.5996539 1.3651507 -0.8754909 0.5450363 -0.4963488 -0.29673243 0.93896073 0.26199582 -0.44093886 0.033964578 1.0558143 0.18150201 -0.5880261 0.70357174 1.1761103 -1.4538968 -0.38540697 0.4062908 -0.267393 -1.0631678 0.5444432 0.10524151 -0.18697321 -1.0922081 -0.3761041 -0.63141745 0.24454792 -0.77071464 2.0686932 -0.49925044 1.2071621 -0.4346944 0.2745841 -0.644272 0.228213 -0.61592263 -0.49505594 -0.29528424
1898 -0.8908974 0.49936154 -0.29348278 -0.4550575 -0.23962574 0.57039773 -0.34215733 -0.56009537 0.3374914 0.5963019 0.62923956 0.60603225 -0.229845 -1.5131744 -0.094668634 -0.74142796 0.6683067 0.114870936 -0.17112355 -1.2437353 -0.44195613 -0.0024375585 0.083605856 0.004827399 -0.6130981 -0.10014846 0.5154357 0.41278514 -0.6736656 -0.32731897 -0.52565324 -0.59660393 0.1113226 -0.0290923 -0.17413697 1.2065585 0.4880478 -0.6079294 0.12647608 0.7630844 -0.45176822 0.64921075 -0.35079262 0.3266905 -0.7601921 -0.23624471 -1.1773264 0.25488678 1.2580804 -0.5562486 0.07654719 -0.58571583 0.73426527 -0.75544167 0.8765073 -0.4363797 0.53136635 -0.1839045 0.23394448 -1.0059711 0.16007242 -0.13202514 1.296617 0.5381765
3475 -1.9145268 0.61204106 0.19222978 -0.7066006 0.7624342 -0.13437217 -0.72217125 -0.51223177 -0.46435058 -0.27779987 -0.103086874 -0.057269245 1.2985711 -1.1059631 0.8649576 0.3031861 1.6557872 0.11635244 0.9521303 -0.7422584 -0.8432128 0.41706982 -0.15001182 0.40158683 -0.6801925 -0.43241528 -0.2676679 0.18736939 -0.52579194 0.10388188 -0.49499577 -0.07690431 0.03391367 -0.6194928 -0.47850317 1.297101 -0.21129657 -0.83775324 -0.74487007 0.44009718 -0.52383304 -0.6372133 0.63208115 0.9006861 -1.1553736 -0.89264303 0.6218772 0.85294884 0.4687574 -0.36452168 0.04548514 -0.17332964 -0.51588404 -1.0105524 1.0914153 -0.2993267 -0.06084457 0.053857855 -0.077474 -0.08743231 0.9817126 0.21725394 0.008380768 0.31790075
1900 -0.9831728 0.49602473 -0.2717548 -0.44201252 -0.24821685 0.5021768 -0.2733751 -0.55065596 0.41630664 0.60112756 0.57342285 0.6065422 -0.24012749 -1.5097615 -0.19272605 -0.71173406 0.7182689 0.06891256 -0.18472683 -1.3398414 -0.4832684 0.05548613 0.054833394 0.037284013 -0.6351328 -0.060618356 0.586294 0.36570168 -0.638268 -0.35418677 -0.5348875 -0.641515 0.06580165 0.005620707 -0.107569486 1.1818058 0.4269795 -0.65670204 0.14946286 0.8325896 -0.56206524 0.5674685 -0.35389653 0.2740495 -0.7671661 -0.16833656 -1.1052988 0.262802 1.2657506 -0.6041744 0.09874739 -0.64169115 0.72564816 -0.76588297 0.7951438 -0.4907708 0.4288206 -0.19032952 0.30210254 -1.0722241 0.28313306 -0.18786113 1.2057438 0.4968875
1899 -0.9849782 0.5144358 -0.31881377 -0.57565814 -0.2152934 0.47742882 -0.44043723 -0.48309126 0.36980227 0.51719844 0.58594245 0.4760311 -0.25530177 -1.51883 -0.05869329 -0.7364296 0.6900376 0.10458225 -0.11253112 -1.3021433 -0.5286555 -0.10035141 0.19629936 -6.738342e-05 -0.6480055 -0.07956308 0.46041808 0.41081765 -0.6932072 -0.45695242 -0.51079535 -0.6284373 0.06457644 -0.01187327 -0.17144682 1.1409981 0.53986895 -0.64003223 0.18795238 0.72037405 -0.5309308 0.6557779 -0.32576185 0.2844841 -0.76536006 -0.17761607 -1.1481682 0.227263 1.2123566 -0.5842282 0.12225631 -0.58003694 0.76060265 -0.66294116 0.8610833 -0.51349896 0.40568286 -0.16238481 0.2596211 -1.0504353 0.14712316 -0.18692443 1.1316953 0.44819963
1810 0.024507148 -0.6279641 -0.58016115 -0.04624712 -0.17267643 -0.36685145 -0.019827923 0.5662246 -0.25745624 0.49790895 -0.72549564 0.14939952 0.5509102 -1.1407924 -0.4029519 0.37899414 0.47188118 0.521053 0.084131554 0.00059728604 -0.23290429 0.4824077 0.4128918 0.95660233 -0.44537494 0.14494503 0.12563281 -0.062346105 0.5591295 -0.6787126 -0.89677703 -1.0515324 0.3172152 -0.49802628 0.2618552 -0.095233895 -0.43882543 -0.61197674 0.51812524 -0.093391225 0.79372215 -0.017402157 -0.3842214 -0.63085777 -0.16875176 -2.071404 -0.7734702 0.41780752 0.109469354 -0.240908 0.18557158 -0.31885034 0.78518486 0.5871482 0.50272006 -0.65405947 -0.002073892 -0.5436967 -0.2903118 -0.5453888 0.35457075 1.0357693 0.06943897 -0.022188684
567 -0.12789276 0.22721192 0.6263778 0.090022005 -0.23220515 -0.5738741 1.0764416 0.07921013 -0.47495902 0.35113755 -0.084936336 -0.35901642 0.5867125 -0.66193646 -0.36379477 0.34311488 1.0677799 -0.39040148 0.4019795 -1.1505805 -0.2932057 0.7839597 0.098915786 -0.45305178 0.7502078 -0.34237063 -1.8530947 -0.08792226 -0.96866506 0.22347516 -0.38627636 -2.0013552 -0.4066697 -0.6432263 0.6014435 -0.4262196 0.39359 -0.9389354 1.2897288 0.010445575 0.50995296 -0.026352376 0.5342585 -0.83542186 -0.780693 -1.3315593 -0.5283192 0.8387327 -0.8760581 0.5020461 0.9372933 -0.32894647 -0.57838976 -0.016116241 0.8099734 0.20264381 0.5147533 -0.20842281 0.51129425 -0.17281295 -0.54160863 -0.20559067 0.53567785 -0.1808565
1031 0.62587863 1.4164239 1.336103 -0.31137848 -0.37111354 -1.0209152 0.43622097 0.52948236 -0.15072812 1.3066537 -1.0029866 0.018858135 0.11349199 -0.9140938 0.37746027 -1.3424098 -0.012048102 -0.44985506 0.65594447 -0.09104026 -0.5208538 0.14917517 -0.3311313 0.9802648 0.35766146 -0.9821755 -0.51752913 0.019113572 -0.571738 0.5937062 -0.5308468 -1.3324306 -0.93693143 0.6103242 -0.40965775 0.46880138 0.08614906 -0.12859547 0.09855583 -0.38742438 0.45566773 0.20237394 -0.026178068 -0.38288447 -1.1636062 -0.24171847 0.73416746 -0.15243374 -0.72550464 -0.03134325 0.41187823 0.4965843 0.7164664 1.1403141 0.59632003 0.60754055 0.20806432 -0.700163 -1.0460846 0.53488046 0.08070974 -0.38267595 0.38906687 1.0706266
130 0.0066719423 0.86734354 0.17615716 -0.041823793 0.9398955 0.50260663 -0.41109625 0.40884134 0.11753168 1.181334 -0.2698145 0.96271574 0.034292556 -1.4794234 -0.036492407 0.2634014 0.29988363 0.5838816 -0.85302705 -0.047449622 -1.4193124 -0.31575578 -0.8048309 -0.7980686 -0.21871802 -1.1162171 -0.49153262 0.12643291 -0.085178696 1.2352035 -0.8280914 -0.7661287 -0.1449907 -1.0585772 0.5686158 1.0051005 -0.29051867 -0.38923076 0.36433387 1.088544 0.44883472 0.20013146 -0.23949352 -0.029973244 0.08253223 -0.24697028 -0.6361672 0.60495025 -0.8193809 0.28343335 0.9591234 0.096291676 -0.27309865 -0.037504666 1.1012353 0.6058085 0.37430906 -0.06844743 0.9305548 1.2287089 0.26643407 -0.5300764 0.085901715 0.18648103
1492 0.7245039 -0.3325947 -0.21606521 -0.22643858 -0.9647534 0.111828424 0.21673834 0.07624366 -0.6372082 0.010454285 -1.1589233 -0.009805864 -0.4445575 -0.15956987 0.15976796 -0.16737665 1.0840985 1.1233821 1.0259387 -0.5659919 -0.63385373 0.75229484 -0.4533277 0.088087715 -0.3280723 -0.13329098 0.05720312 0.16179974 -0.84943956 0.8674176 -1.2032679 -0.15546621 -0.37762505 -0.68927157 -0.07396009 0.332092 0.29023936 -1.1647063 1.1250854 0.62801 -0.0787059 0.37574592 -0.24258079 0.27199045 1.5186751 -1.2534267 -0.1316525 -0.22068593 0.77620685 0.2681866 1.5564127 0.12976961 -1.2575651 -0.023881618 0.44309244 0.07777654 0.1324429 0.62603396 0.37805548 -0.012401664 0.043506104 0.005097022 -0.16182175 0.5451678
3681 0.8374061 -0.60857517 0.29646733 0.29668316 -0.05818193 -0.52257425 1.1152555 -0.67613184 0.29944396 -0.095195666 -1.04833 -0.41199794 0.47026706 0.5097979 -0.5695495 0.37210426 0.44212157 0.46501425 0.39179823 -0.25980648 -0.9882591 0.19073513 0.22312587 0.18690282 0.18129754 -0.21486287 -0.19172545 0.7877381 -0.70045716 1.0535707 0.27512634 0.43882445 -0.0068734377 0.21768609 0.022555351 0.5523425 -0.6453106 0.17498443 0.15453696 0.13995194 0.48423558 -0.43848225 -0.22074062 0.27809596 0.14767314 -1.0210851 0.5226504 0.25209582 -0.20474495 0.24817723 1.4048063 0.12994532 0.29291397 0.23870373 0.81625026 -0.049918897 -0.64351475 -0.037032157 -0.62056667 -0.3758114 0.5531109 0.5292513 -0.52087057 0.059720963
3289 0.19110925 0.31401113 -0.10569211 0.4306162 0.7523537 0.44065002 -0.08935808 0.17021242 0.47034007 0.49243358 -0.43625823 -0.21397814 0.9385283 -0.10380033 -0.19232158 -0.463546 -0.6834158 -0.08794217 0.40265974 -0.94496447 0.5360672 0.354774 0.18659389 0.65643257 0.49621123 -0.15243189 0.14545256 1.5858207 -0.5207455 -0.22319318 -0.79224384 -1.5433941 -1.0566661 -0.19508176 -0.32924387 -0.5177881 -1.3459759 -0.3327943 0.9038312 0.17738783 0.23547982 0.39647707 -0.8067037 -0.32657504 -0.44624645 -0.9979488 -0.21707691 1.8651186 -0.8805702 -0.11170713 2.093921 0.8679202 0.1112824 0.32363138 0.82740664 -1.0200185 0.4584522 0.65979 -0.67680424 -0.020932822 -0.010903662 -0.5958211 0.21415721 -1.0057093
2094 -0.13732764 0.06431703 0.30026677 -0.08794036 -0.06315522 0.55626935 -0.62748396 1.4074734 -0.5029164 0.67590535 0.024126768 0.9369911 -0.1837524 -0.92541516 -0.49805558 -0.60474455 0.67704815 0.26311895 -0.07863245 -0.655926 -0.1391913 0.72580636 -1.0879613 -0.32447633 0.9120975 1.6422293 -1.299105 0.7972252 -0.02035608 0.72417676 -0.4667595 -1.5029373 -1.6754298 0.931767 -0.23065493 0.64372766 0.6131718 0.5662322 1.178225 0.34742883 -0.7501007 -0.72597575 0.2762519 -0.71997154 -0.07853132 -1.4781162 -1.30649 0.70738393 -0.022564879 0.2555316 0.2373133 -0.78375965 0.53190315 0.1888993 1.2805827 0.21757388 0.036510624 -0.27190247 -1.34001 -1.1197306 -0.104621634 0.32085875 -0.0034162244 0.5316924
1247 -1.0370262 0.34176847 -0.42656827 0.51500165 -0.74850094 -0.17160013 -0.4936644 0.63667166 -0.7294612 -0.16774522 0.06437677 0.4767122 0.18248765 0.12780552 -0.88688606 0.27628803 0.97583956 -0.42120907 0.6575242 -0.6974945 0.50617987 0.30780122 -0.19443876 -0.81783676 0.6399604 0.75909567 -1.0699964 -1.0329459 -1.248951 0.41707847 -1.0874823 -1.8498074 0.522582 0.7671988 -0.30919522 1.097087 0.54623955 1.6609746 0.20932165 0.68937236 -0.9556562 -0.23325995 0.44910672 0.43445307 0.3155742 -1.0657833 0.24038662 0.22472367 0.35920516 0.29865986 0.3955594 -0.13077247 -0.064610526 -0.6499124 1.0878927 -0.20187578 -0.22934273 -0.73753244 -0.5574202 0.23201154 0.03062588 -0.34287998 -0.18161587 1.3007461
2105 1.0706325 1.6950278 -0.31297445 0.77563405 0.4262734 -0.32596338 0.39960024 -0.5177848 -0.1900731 -0.26446313 -0.76058644 -0.7348982 0.22210574 1.3183107 -0.11108578 -1.2656956 1.3616977 0.5527398 1.1929847 -1.029724 -0.08167217 0.09387816 -0.18792802 1.1016845 -0.06411044 -0.4383303 -0.29923025 0.16784418 0.004538815 -0.7751853 -1.0904952 -0.2843232 0.0859919 -0.30577722 -0.7046844 1.3200997 -1.0773773 0.14249146 0.25616074 0.12438368 -0.10023355 -1.0461421 -0.083020434 -0.122083105 -0.5783569 -0.59469384 -0.14041373 0.8122827 -0.30562243 0.8362653 1.168424 -0.5491561 0.30314416 0.4149816 1.0609449 0.057752308 1.3226901 -0.22823192 -1.1204399 0.28835237 -0.058408085 -0.544205 -0.26412874 -0.26645058
216 -0.6464104 0.7012974 0.41270298 -0.9975302 -0.78000474 0.878283 0.21548285 0.05413594 0.27071503 1.0730228 0.75779605 -0.73855686 0.15270953 -0.885503 0.2363538 -0.7371487 0.59594566 -0.66808754 0.1788892 -0.8343308 -0.5673549 -0.0016483301 -0.4073886 -0.079397194 -0.074517466 0.3034137 -0.7194461 0.15696393 -0.606569 -0.10470527 -0.13309026 -0.73571396 -0.98873013 -0.336097 -0.03371239 1.0927278 0.05817056 0.52460593 0.067599475 0.8148457 0.14815418 -0.06406843 0.47433016 0.15346788 -0.12847416 -1.4734716 -0.19350816 0.96823144 0.80760103 -0.4081893 0.5407039 0.5053622 -0.041328996 -0.8158307 0.4175671 0.4597172 0.9518733 0.23671328 -0.039831202 -0.8693635 0.60769284 1.4047211 -0.38490903 0.8365259
3513 -0.4800148 0.35222232 -1.2722718 0.80604047 -1.0121152 0.6837503 0.12767132 0.49688962 0.37110704 -0.39297938 -0.27884665 0.022323383 -0.02704682 -0.29055986 -0.064018354 -0.004623981 2.0649014 -0.2783072 0.66118634 -0.6803492 -0.021359568 0.53765744 -0.28044292 -0.03809321 0.18701352 0.3217415 -0.6410785 -0.32052112 -0.5456429 0.08607794 -0.34637678 -0.44933468 -0.3646931 0.6367592 -0.6851252 2.1400375 0.49159002 0.72068816 0.627588 0.7590629 -0.058909994 -0.51689166 -0.5834194 -0.24184982 -0.9418403 -0.7854359 -0.6501227 0.90697855 0.5127538 0.3504091 1.4339334 -0.36776486 -0.16654499 0.54884976 0.87121344 0.040943503 0.6724027 -0.004123646 0.3483545 -0.8405141 -1.2646649 -0.10024753 0.5255719 -1.1092488
2348 0.520341 -0.10701447 -0.5752459 -0.34090528 0.9434006 0.49740395 0.35133293 0.42417637 0.21808314 1.382675 -0.30126536 -1.2537603 -0.08422825 0.25296605 -0.21090585 -0.00613012 0.9938839 -0.13803104 -0.30679932 0.64881176 -0.7534259 -0.39726 -0.7324398 0.018338948 -0.62392986 -0.3639857 -0.29408234 0.23106423 -0.36796272 -0.23066542 -0.75266826 -0.7331765 -0.15787786 0.27942568 -0.7251957 1.1138998 0.5789211 0.6534241 0.075759456 0.4188896 0.5745482 -0.63323236 -0.23287588 0.98287153 0.6959158 -1.5440755 -0.30014643 0.6602857 0.3323532 0.41970024 -0.13922359 -0.101245925 -0.4125369 -0.35177556 0.8678746 -0.8146493 -0.15455419 0.95704275 -0.40823963 0.52580565 0.24600902 -0.81771314 0.6460563 0.019701753
2421 0.46509892 -0.16587743 -0.06669218 -0.17233564 0.11787687 -0.16105446 0.22174467 0.6945377 -0.32004645 0.07570125 0.646071 -0.33135352 -0.24846675 -0.12103736 -0.91197425 -0.2473975 0.13265695 0.0651461 0.7474457 -0.70566225 -0.4352096 -0.8039301 -0.51581085 -0.005783303 0.18155499 0.13224119 -0.33245063 0.111954644 -0.20139384 0.5670302 -0.20311235 0.34504402 0.8178344 -0.13210504 -0.61541235 0.49537522 -0.37296 -0.030828388 -0.45777798 0.4196879 -0.12812229 -0.17535855 0.55502284 -0.7384583 -0.41293192 -0.87808514 0.28774938 0.5735408 0.63916963 -0.4462091 0.595836 -0.004027772 3.8671533e-05 -0.6462908 0.9153151 0.10587667 -0.5083398 -0.18702827 -0.36239535 0.20572697 -1.0670149 -0.117481954 0.50023425 0.28138214
2423 0.5168826 -0.26212233 -0.15313871 -0.1943934 0.09283709 -0.122340985 0.15398638 0.6157995 -0.2735388 0.036448345 0.59080243 -0.4178639 -0.15459535 -0.1412447 -0.8838871 -0.36685586 0.20213816 -0.0015889971 0.7717584 -0.5156031 -0.5328552 -0.8114407 -0.5499628 0.055569705 0.2535944 0.22672477 -0.30990854 0.14000435 -0.2595425 0.56443244 -0.24791159 0.28792393 0.9273359 -0.14230172 -0.60940284 0.4504425 -0.38138288 -0.08116351 -0.50136596 0.38447264 -0.081345186 -0.16042808 0.5353502 -0.6928316 -0.4958362 -0.9099601 0.28760344 0.5582087 0.54667896 -0.4562518 0.5658633 -0.05992344 0.038035974 -0.6263803 0.924432 0.08327771 -0.48894358 -0.21592192 -0.2801904 0.3167044 -1.0430692 -0.2454413 0.5366873 0.20780583
2483 -0.1826642 0.6273722 -0.021282153 -0.65227216 0.08312458 0.36968154 0.019917758 -1.0129174 0.6592696 0.31491506 -0.16368008 -0.41942424 0.30726907 -0.42079553 -0.49556887 -1.1989422 -0.4821846 0.7283566 0.15646178 -0.26583806 -0.9736035 -0.12366508 0.23239057 -0.2448964 0.7705358 -0.9546444 -1.5137812 0.60041803 0.423679 0.06973016 -0.56512904 0.6013834 -0.050923053 0.54973745 0.34101224 0.33756384 0.25969157 -0.10682631 0.25844756 -0.18064837 -0.5427766 -1.791083 -0.42983183 -1.057832 1.1796061 -0.7863701 -0.90352476 1.1955856 -0.26992214 -0.090892464 0.33067816 -0.18419214 0.13726424 -0.6280849 0.9657426 0.34540778 0.22995287 -0.54404753 -1.5052416 -0.24103236 -0.11564975 -0.8325619 -0.79232633 -0.08665663
3810 -0.93846816 -0.19278282 0.91852415 1.3091332 -1.1005992 -0.6620243 -0.35111657 -0.8703701 -0.36890376 0.35991883 -0.5288968 -0.7863452 0.43723902 -0.6672113 -0.57114226 -0.0165006 -0.25540948 0.71779555 0.46820524 0.055765256 -0.1548053 0.29870385 -0.46242803 -0.49720082 -0.4102015 -1.0619283 0.861213 0.5029309 0.14918105 1.5137336 -0.7952478 -0.586518 -0.59660167 -0.0005909764 -1.1146487 1.2384948 0.016796002 -0.36365157 -0.035650842 0.42093262 0.3168478 0.37507126 -0.09273177 -0.81468624 0.22409852 -2.1958628 1.1447161 0.08209597 0.3583988 -0.7884756 0.78815025 0.092241 -0.7913714 0.065738335 0.7133053 -0.24174586 0.16148429 -0.107609175 0.3123724 0.046237905 -0.030839905 -0.30551714 0.35806188 -0.104680195
218 -0.5701717 0.61316246 0.4360532 -0.9630541 -0.7940007 0.885106 0.26882985 0.016719362 0.24763252 0.9397172 0.8603469 -0.833315 0.09139882 -0.9061203 0.30537546 -0.6657708 0.63862115 -0.66587853 0.23276438 -0.7844562 -0.5734606 0.060474705 -0.51414716 0.007924926 -0.07112309 0.2996523 -0.74715495 0.17037322 -0.5324337 -0.06933611 -0.06531208 -0.85423046 -1.0168091 -0.296245 -0.05916694 1.0742154 0.0049102623 0.42058566 0.0608927 0.78456086 0.13916653 -0.05917247 0.539513 0.12235586 -0.09127469 -1.4286836 -0.20937389 0.9576644 0.769576 -0.44778407 0.4964247 0.44165033 -0.0576371 -0.86801744 0.53385836 0.4317373 1.0152352 0.24792667 0.0030310766 -0.9218173 0.61167854 1.3876055 -0.4122205 0.9207953
981 0.26510355 0.6155442 0.588932 0.0042619337 -0.7857486 0.14906608 0.21595077 -0.8550897 0.18513039 0.4881176 0.60702515 -0.8051425 0.5071069 -1.4903915 -0.21726769 -0.91506594 0.03984026 -0.29600674 0.027931422 -0.8952943 -0.9243272 0.72134715 -0.12661287 -0.30402666 0.43923002 -0.77403456 -0.34682003 0.7874207 -0.24175923 0.29030877 -1.2353947 -0.52318585 0.24447618 -0.3148494 -1.0016519 1.1938752 0.15524839 0.08616393 0.3175397 -0.5797857 0.7007898 0.24589655 0.21696 -0.18235432 -1.2212868 -0.31812406 0.109785125 0.8463322 0.0033176232 0.71912086 1.0867666 0.3534947 -0.376926 -1.3200879 -0.45571962 -1.3638479 -0.37218514 0.6391651 -0.004013339 0.6127449 0.8147395 -0.14574431 0.5226277 0.6924692
2426 0.4913596 -0.19078106 -0.0149618 -0.21961054 0.10092425 -0.14378542 0.15384331 0.63414633 -0.2926109 0.0819421 0.5703603 -0.36798728 -0.21292524 -0.15228322 -0.9284397 -0.3268802 0.21343306 0.12199908 0.6744304 -0.5835572 -0.4430315 -0.8007131 -0.52237296 0.042200647 0.25963277 0.24142219 -0.3054878 0.20600295 -0.23578583 0.57877505 -0.18344799 0.41818392 0.8869224 -0.15183006 -0.6111341 0.46679348 -0.42019406 0.0024008404 -0.45855036 0.49347222 -0.17592898 -0.18315852 0.41930795 -0.7743709 -0.5248679 -0.93712527 0.2890118 0.6082761 0.6596076 -0.5438543 0.63030124 -0.005244859 -0.03054395 -0.6696358 0.8945067 0.13379538 -0.46845144 -0.2672848 -0.32139966 0.2567232 -1.0195339 -0.17539556 0.51909953 0.19965422
3514 -0.54149115 0.2880542 -1.2212634 0.74614537 -1.0632359 0.68392175 0.12657554 0.36798435 0.25870284 -0.39334202 -0.23712799 0.035195537 -0.07534517 -0.2335658 0.001239248 -0.05388757 2.046244 -0.16558416 0.56563264 -0.74155694 0.018903783 0.53517425 -0.1941342 0.08025012 0.16096322 0.21649876 -0.6277484 -0.31258667 -0.5152024 0.07957385 -0.2932338 -0.42424804 -0.36198574 0.7111778 -0.6405858 2.1589506 0.560535 0.8773373 0.5479105 0.83779436 -0.017311946 -0.53429633 -0.5802952 -0.3140892 -1.0223868 -0.75380594 -0.6042833 0.8044892 0.53575313 0.3952754 1.4440368 -0.3893347 -0.2729676 0.54058415 0.94259965 0.049682844 0.8302308 -0.026738534 0.3326851 -1.0155317 -1.3073725 -0.16229905 0.39978996 -1.078521
2420 0.53480387 -0.26334068 -0.10410947 -0.25118968 -0.019636443 -0.17092337 0.16514203 0.59675676 -0.26329547 0.099726595 0.64746195 -0.32695016 -0.21144828 -0.15723029 -0.90266025 -0.34793046 0.24226595 -0.020413816 0.7326146 -0.55562574 -0.49341112 -0.7411075 -0.55860865 -0.0030515003 0.16394064 0.30398753 -0.3483816 0.09369783 -0.18861814 0.58543336 -0.21218793 0.37463143 0.92458457 -0.20507252 -0.6357716 0.50913525 -0.4290009 -0.073360816 -0.45620346 0.4543841 -0.14478959 -0.24739763 0.58501863 -0.7364209 -0.41296533 -0.9309082 0.3577736 0.64510673 0.62682027 -0.48971486 0.56583506 -0.037051518 0.010123202 -0.5587731 0.89364797 0.070181146 -0.497392 -0.30614242 -0.33007315 0.3367966 -0.9345353 -0.18263851 0.5199596 0.19988877
1077 0.20015894 -0.095818974 0.4559601 -0.17812003 0.3151177 -0.19556302 0.61619294 0.27916774 1.1764612 0.08740481 -0.005019694 0.03453273 0.32677093 -0.848832 0.23901343 -0.1893618 -0.031956244 0.47940916 0.29630983 0.103340335 0.16056234 -1.4403043 -0.42130277 0.14396064 -0.052961107 -0.37213415 -0.5745285 0.8335727 -0.8543946 -0.40004703 -0.9047964 -0.9792318 -1.1177597 0.08237344 0.10456445 1.9332522 -0.2281293 0.4554116 0.85710704 0.6564221 -0.060862973 -0.08207045 -1.055505 -0.86648756 -0.47205916 -0.58551323 -0.6546134 1.0803919 0.050178792 0.16241205 0.9966625 -0.68256503 -1.4082927 1.4331704 1.0574623 0.4716037 -0.12510335 -0.07628932 -0.85007304 -0.117676675 -0.5373786 -0.13386284 -0.42634678 1.131125
2878 0.029488748 0.46114781 1.1519918 -0.70939416 0.05389284 0.10953439 -0.2253994 0.31099844 1.1385424 0.49983242 0.05857146 -0.09506104 0.32629627 -1.1563799 -0.8688782 0.44988388 1.1609728 -1.0156926 0.79100376 -1.3417413 0.2892567 -0.4784356 -0.28430104 0.76456475 -0.26284495 -0.2308722 -0.21808194 -0.21813317 -1.0350502 1.48896 -1.1298715 -0.14437792 -1.0618789 -0.03714955 -0.11502765 0.46890438 -0.5987536 -0.3959363 -0.17812055 0.7169445 0.49804133 0.3473209 -0.6869381 -0.37785503 0.3031704 -0.45665762 -0.5260788 -0.5527985 0.6582181 0.16992182 0.31995648 0.25700113 0.018824315 -0.07929187 0.843841 -0.20115466 0.6008165 -0.5771678 -0.01400382 -0.1697791 -0.89342695 -0.41456047 -0.23629145 -0.5090983
116 -0.80926335 0.22381888 0.28094694 -0.3134522 -0.732122 -0.16233175 -0.0070253997 -0.08664563 0.005532272 -0.32552487 -0.12587932 0.13745709 -0.49762702 -0.32224476 -0.03968488 -0.8297659 0.44594565 -0.13937448 0.9280299 -1.0089628 -0.15113322 -0.1487159 -0.38680536 0.640257 -1.0459096 -0.116681844 -0.4889797 0.5712078 -0.7147008 -0.1110269 0.226562 -0.14144656 -1.5266004 1.15031 -0.37831897 0.45802835 0.42648327 0.5375952 0.7648798 0.6679251 1.3192724 -0.7601609 0.18205005 0.5586671 -0.831389 -1.1274594 -0.6258011 -0.19341126 1.1064694 -0.99399096 -0.20733386 0.5382274 -0.008538223 -1.0599008 0.7048255 -1.4162098 -0.13692231 0.36460608 0.42693228 0.014277108 -0.72144574 -0.6038365 -0.11304577 0.48619723
1246 -1.1180673 0.3995053 -0.47305718 0.5448601 -0.70293057 -0.1225055 -0.43502682 0.6658642 -0.7613385 -0.16338152 0.063707195 0.3726839 0.2721485 0.14360642 -0.80631 0.24138643 0.9397734 -0.43018964 0.73333424 -0.7162486 0.55228573 0.20608522 -0.2838668 -0.89312446 0.61317366 0.76238364 -1.0520694 -1.011181 -1.1226454 0.40079725 -1.1832713 -1.8518231 0.5793923 0.79276454 -0.29637325 1.0544187 0.64044654 1.7190542 0.17906347 0.6814628 -0.9911221 -0.3301101 0.41006786 0.46415117 0.2719555 -1.1367174 0.2722731 0.23293895 0.40109128 0.26603028 0.46284658 -0.104271404 -0.14566466 -0.60829496 1.1083395 -0.18106607 -0.25976303 -0.6623733 -0.54659784 0.19214398 0.051613867 -0.3302585 -0.32919455 1.2137055
1217 -0.4914713 0.2414999 -0.11007353 0.22821784 -0.086401686 0.194046 0.38068 0.13042718 -1.0151545 0.4378358 -0.017399887 0.55962354 0.21194589 -1.3179461 -0.80628633 0.36572576 -0.29334816 -0.028496666 -0.3817704 -1.104501 0.13074143 -0.05718908 0.21131217 0.110412546 -0.18957311 -0.220907 1.3210927 0.12162292 -1.9117519 -0.03214611 -0.50109994 -1.3503381 -0.23506641 -0.5697687 -0.20855409 0.42337906 -0.22839604 0.25266877 0.018208638 0.48166773 1.0900835 0.89460707 -0.6943535 0.08919969 1.0324044 -0.91186446 0.53173405 -0.8181482 -0.1925836 -0.71837056 0.5800915 0.19417143 -1.241688 -0.12080583 1.6129947 0.9515709 1.1271889 -0.8603603 -0.8213344 1.2108078 -0.5852841 0.21507953 0.1849997 0.034542646
2422 0.5036528 -0.21601637 -0.101114586 -0.16035673 0.10517408 -0.1557895 0.20777388 0.6140864 -0.2542918 0.06062075 0.5568207 -0.37435585 -0.14424442 -0.15304507 -0.92155814 -0.2436311 0.200706 0.046626214 0.73727643 -0.5782193 -0.4391334 -0.8410827 -0.5313902 -0.005518209 0.25415644 0.23475665 -0.32191765 0.15430191 -0.23970693 0.5867211 -0.22937563 0.31722742 0.9159206 -0.18175912 -0.59065914 0.47342968 -0.45953283 -0.06747776 -0.5014767 0.45355558 -0.13221316 -0.19669876 0.59059554 -0.727388 -0.4622199 -0.92368925 0.28379017 0.5680144 0.60677165 -0.45863768 0.53435826 -0.05017766 0.009470004 -0.6668664 0.92611504 0.12694767 -0.48825717 -0.27431953 -0.3936039 0.16956244 -1.0312485 -0.24469365 0.5522456 0.22169547
2424 0.48982814 -0.23943894 -0.17427501 -0.17239758 0.103640705 -0.20573197 0.108105466 0.5828255 -0.27431053 0.117895275 0.5783526 -0.36436188 -0.23756483 -0.11062884 -0.9026212 -0.3271906 0.2526314 0.07943002 0.7209349 -0.5743599 -0.4305013 -0.8183457 -0.4833004 0.00018518046 0.20065777 0.3000579 -0.36238045 0.15483232 -0.21990454 0.5268584 -0.27487698 0.40252817 0.9493092 -0.18495975 -0.6989035 0.5025312 -0.3404063 -0.113098495 -0.43183047 0.45015183 -0.090785034 -0.15274455 0.47019318 -0.7868435 -0.4980197 -0.89354354 0.2842593 0.5583302 0.639982 -0.503738 0.6087872 -0.12837125 0.0037023271 -0.663419 0.9355007 0.08792642 -0.5031082 -0.26463202 -0.30144364 0.2692137 -0.9611333 -0.11667651 0.48646644 0.24141674
217 -0.66873896 0.7425818 0.31732106 -0.8919894 -0.7558626 0.8218138 0.18242133 -0.0082768835 0.2303363 1.0751739 0.8114347 -0.84572446 0.061175738 -0.87293816 0.2244121 -0.7038445 0.6182823 -0.6819892 0.11621712 -0.84811264 -0.59067875 -0.018496564 -0.498222 -0.052933123 -0.028087463 0.34986573 -0.7683053 0.19079754 -0.6368935 -0.053969964 -0.104650356 -0.81367946 -1.0100279 -0.3612555 0.043310415 1.0622919 0.115174085 0.40713757 0.07840493 0.80484194 0.22409642 -0.1044014 0.43124086 0.25095287 -0.10326978 -1.4275694 -0.17187703 0.92642075 0.71882933 -0.38661373 0.52781343 0.3983368 0.025497073 -0.86868423 0.53796464 0.45802498 0.92267054 0.16259648 -0.06041373 -0.92754894 0.6591468 1.3603954 -0.34739774 0.85732955
1070 0.21559922 -0.058728717 0.47105017 -0.3063791 0.36235735 -0.32457313 0.59940344 0.18521202 1.2141051 0.02436459 0.14164399 0.0010620964 0.39183202 -0.8619546 0.23503967 -0.18055598 -0.06869163 0.4814105 0.3857694 0.03285651 0.23852213 -1.4245367 -0.38686866 0.14685717 0.018707847 -0.33437705 -0.57973886 0.9329746 -0.8877142 -0.35032701 -0.93842727 -0.9511214 -1.1440831 0.11826949 0.1426504 2.0110075 -0.2754892 0.6044694 0.9025391 0.6207365 -0.06403548 -0.017345274 -1.0930129 -0.78812605 -0.41871083 -0.65413576 -0.5968474 0.9693236 0.003006935 0.2202689 0.94160014 -0.641073 -1.3669438 1.406964 0.97612625 0.52028465 -0.03261442 -0.12373021 -0.90802836 -0.09982711 -0.5095496 -0.17129682 -0.38752994 1.1079123
247 0.7654531 1.0106769 0.37546694 -0.13816585 0.41801643 0.19975953 0.028384687 -0.51457584 -0.355721 -0.26801255 -0.5600763 1.0280509 0.39219335 -0.64766353 -0.9212448 0.73230666 0.38507012 0.32220817 0.19535394 -1.1529062 -0.47525138 -1.0647492 -0.15324365 -1.0388548 0.40211225 -0.111419365 0.49027672 -0.11951028 -1.1629224 -0.49801615 -0.030257573 -0.92658603 -0.46786913 0.7496657 -0.102536894 0.33017126 -0.76547784 -0.28240526 -0.634295 0.32467532 0.7928456 -0.49284875 0.37283164 -0.5589508 0.31224433 -0.6905425 -0.9909454 0.6534549 -0.6491013 -0.6249689 0.7340275 1.0323267 -0.23266542 -0.572945 0.28375667 -0.61870974 -0.94516355 -0.64290667 0.34738952 0.41642913 0.22797221 -0.03839758 0.2596087 0.34737164
2011 0.39988625 -0.5855528 -0.51747453 -0.1545988 -0.96982336 -0.57163346 -0.14290461 -0.30638278 -0.063872844 0.025135156 -1.0074165 0.06877672 0.5938755 0.10729021 -0.16000715 0.18910803 -1.2016797 0.3400571 -0.007874679 0.5718441 0.49764118 0.35514593 -0.32200268 0.22330181 -0.69197273 -0.22658327 -0.011290477 -0.5148369 -0.7756358 0.49619853 -0.591902 -0.65900826 -0.031129664 0.44536057 -0.256196 0.4451065 0.22051455 -0.18013954 0.23186971 0.029429516 0.55219525 -0.7117127 0.911806 -1.0997676 0.3019784 -0.896052 -1.3969747 1.3375267 0.6646761 -0.7955291 0.86016893 -0.35108995 -0.15253806 -1.4431773 1.5153468 -0.25994095 -0.78486013 -1.0979415 0.58404607 -0.04318906 0.08011852 -0.33631992 -0.812293 0.8652779
246 0.7293134 1.002438 0.39854637 -0.094036624 0.44957235 0.11504267 0.0937804 -0.5885705 -0.5024187 -0.28238738 -0.45728835 1.0156729 0.39827955 -0.66383535 -0.89340353 0.6535681 0.4423175 0.3994543 0.26511097 -1.15215 -0.41144073 -1.006239 -0.20205812 -1.0411845 0.28964725 -0.10500416 0.45392248 -0.10699152 -1.2103977 -0.46616825 -0.11828347 -0.9046451 -0.44954988 0.6229116 -0.14862275 0.24168283 -0.776539 -0.16598485 -0.7155838 0.40186504 0.74507827 -0.5617958 0.34208626 -0.5776842 0.30768183 -0.6986322 -0.90449643 0.6493459 -0.66400677 -0.57233924 0.7064946 1.0043734 -0.16939172 -0.575587 0.34629908 -0.7372559 -0.9894447 -0.61064976 0.38292715 0.32269925 0.21988438 0.06334866 0.24065155 0.42801312
1285 -0.051694207 0.036704004 1.2087445 0.09852419 -0.59788615 0.51151717 -0.30809417 0.19764115 0.430878 0.25582132 -1.1420151 0.2181556 -0.28851825 -0.8666987 0.0061915475 -0.06481971 -0.07364202 1.0329102 0.11903124 -0.42045397 -0.32668167 1.1736927 0.09640603 -0.537816 -0.7412666 0.421256 -0.07521458 -0.18342057 -0.14626768 0.13412584 -0.2529265 -0.16570042 -0.27438927 0.47292277 0.3116708 1.4573714 0.57415706 -0.29475367 -0.14400475 0.105236836 -0.5945098 -0.9754354 -0.33228227 0.2345887 -0.45038873 -1.1745077 -0.055931453 -0.70984185 0.042035352 0.25964552 0.3467284 -0.57258785 -0.4083875 0.46346256 1.151887 -1.1609646 0.0373592 -0.36482397 -1.096603 -0.23548204 0.05969866 0.39763853 -0.011792513 0.33375597
1555 0.818572 0.55575496 -0.34923777 -2.348839 -0.008639264 -0.29009917 0.848552 -0.7830793 0.23045011 -1.0878968 0.017091028 -0.12733397 0.016517382 -0.724199 0.0036199705 0.647231 1.4801247 0.5309081 -0.049222633 -0.5766857 -0.5654184 0.7223336 0.6144257 0.58765155 -0.79481775 0.30183303 -1.3663481 -0.702565 -0.3854366 0.5600511 0.13706806 -0.81508785 -0.11932825 -0.40236816 -0.2226283 0.77483076 0.41233382 -1.1497315 -0.16561194 -0.8282415 -0.66449106 -0.54069996 -1.1440623 -0.19094424 0.07935633 -1.4674382 -1.0480635 -0.5602004 0.15772928 -0.47562543 -0.18433459 0.90115553 1.0078201 -0.18101607 0.9418432 0.0039746403 -0.019130193 0.11140194 -0.7180981 -0.40844175 -0.8722912 -0.7388146 -0.3891459 0.27539745
2879 0.07640141 0.46778202 1.2430716 -0.7162582 0.12732628 0.1487089 -0.17906952 0.36160058 1.191346 0.46902293 0.097017944 0.035154812 0.36251172 -1.172755 -0.7860334 0.4942733 1.2071909 -1.0577141 0.6438785 -1.3327954 0.4548447 -0.54093045 -0.36223942 0.68642783 -0.25751096 -0.24919097 -0.2751298 -0.28302824 -0.95787436 1.5205139 -1.0736545 -0.06394107 -1.0525526 -0.0039327038 -0.1811475 0.45373127 -0.5466527 -0.40619227 -0.169987 0.593814 0.5968922 0.3823863 -0.7715892 -0.33318272 0.33854973 -0.49288356 -0.39642653 -0.43461624 0.7164487 0.18375653 0.39341122 0.17602032 0.041506458 -0.15378752 0.8616257 -0.11171861 0.60807484 -0.6272907 -0.05137033 -0.18166602 -0.88508224 -0.32207254 -0.2652052 -0.43155575
1284 -0.0003886641 0.042615496 1.1713897 0.22964954 -0.55637187 0.54572326 -0.3038148 0.20891139 0.50789833 0.29659057 -1.1590204 0.23376814 -0.34796974 -0.8743283 -0.056748364 -0.0007576437 -0.16730884 1.0005637 0.092724316 -0.38237768 -0.3110862 1.1825502 0.13566285 -0.6170619 -0.6995797 0.422876 -0.064586535 -0.29489723 -0.11530726 0.12221239 -0.18225262 -0.16884439 -0.27778837 0.60004985 0.29386422 1.4117367 0.6214863 -0.44897583 -0.17336462 0.12534007 -0.60597765 -1.0278791 -0.3763094 0.26155844 -0.4996104 -1.2394122 -0.07111257 -0.636766 0.13093156 0.20048487 0.38396502 -0.6160344 -0.36060548 0.45826283 1.0987732 -1.1313782 -0.0018701596 -0.26440895 -1.0881151 -0.26823 0.072917074 0.2976966 -0.03936134 0.30504015
545 1.0294898 0.20940632 -0.07927749 -1.2955706 -0.4089949 -1.1210915 0.71729183 0.3498134 0.25312462 0.33783185 -0.96761614 0.6368955 -0.6101469 -0.7274159 -0.5691344 0.18868594 -0.16412894 -0.2593429 -0.45458972 -1.1159908 -0.81967676 0.17730626 -0.26814106 0.5617394 -0.14250821 0.25065988 0.49433473 0.2799569 0.0032461504 -0.012480915 0.032416478 -0.9659275 -0.31076056 0.099697925 -0.47651947 1.181337 -0.16476254 -0.3750853 -0.8010511 0.15730512 0.7789124 -1.7541101 -0.5964335 0.7322521 -0.5581429 -0.04913334 0.13940781 -0.60138595 0.25136894 1.1112695 -0.36171997 0.3591092 -0.7524043 -0.23535506 0.5114057 -0.5414206 0.22193953 -0.4381211 0.4072067 0.38067037 -1.120721 -0.18639177 -0.09736422 -0.26794577
2228 -0.019370124 -1.205778 0.36269262 0.2961669 -0.05355352 -0.6085141 0.38515314 -0.53382003 0.4222766 0.49291015 -0.8945453 0.3962864 0.1905115 0.38692865 -1.2177638 0.038326852 0.89367527 0.43273947 0.96794975 -0.52676153 -0.8975573 0.42783967 0.48936537 -0.47799107 -1.1379246 0.20064755 -0.19498757 0.9413372 -1.1597625 0.23992422 -0.7923707 -0.2578144 0.24748816 -0.5667758 0.17769797 0.45351422 0.0035823318 0.81052125 -0.46216354 -0.6928933 0.24478403 -0.36884096 -0.22443573 -0.662566 0.08391484 0.1037708 -0.5983116 0.35302472 0.18849188 0.36212075 1.3671129 -0.0017457487 0.72158724 -0.16017887 1.0814874 -0.0083593195 -0.32854712 -0.3030656 0.0768542 -0.10216992 0.16876163 0.3305791 -0.13462175 -0.014945706
1286 0.006428301 -0.039513025 1.1460401 0.16899486 -0.54047865 0.5201318 -0.2687514 0.20978409 0.38675258 0.1853801 -1.1064712 0.21017487 -0.29395914 -0.9426452 -0.0047291485 -0.07908114 -0.27624074 1.1168107 0.15794995 -0.3775135 -0.36961177 1.1746901 0.11983775 -0.62749666 -0.6972202 0.40767652 -0.10328214 -0.22110802 -0.1981114 0.15920898 -0.22773257 -0.115732655 -0.18957502 0.60984695 0.28634736 1.3762951 0.6944577 -0.36306235 -0.1870426 0.009942904 -0.5572115 -0.9673807 -0.33223194 0.36394206 -0.50583684 -1.3047653 -0.15264185 -0.70683384 0.15914482 0.28716204 0.35550678 -0.56287336 -0.31548807 0.5033734 1.2398024 -1.0741771 0.15757285 -0.31420195 -1.0620449 -0.1755175 0.1270082 0.3761803 -0.007311626 0.23493572
1139 0.93854916 -0.6967285 0.46112964 0.08172585 -0.06432729 -0.50631887 1.4489955 -0.63648367 0.2506067 -0.04816593 -0.9193872 -0.1856316 0.40733632 0.3885284 -0.47760528 0.09462149 0.480515 0.35641426 0.4524027 -0.23120466 -0.8460738 0.27817968 -0.1903304 0.3073831 0.20960414 -0.33659923 -0.51623535 0.90564895 -1.0303607 1.1067338 0.30922386 0.47215834 0.18647848 0.22812885 0.11009831 0.566994 -0.5209802 -0.1091497 0.107804194 0.27243495 0.5759335 -0.4236612 -0.33692497 0.58256006 0.13289863 -0.87055534 0.40361774 0.27508238 -0.21203135 0.4191017 1.5434786 0.121414356 0.49006918 0.2586541 0.90425676 -0.34075713 -0.42615458 0.034618087 -0.63845015 -0.26154175 0.5073372 0.48143288 -0.35409027 0.08352235
174 0.5260714 -0.08987722 -0.39977396 -0.9493517 -0.08823481 0.114381745 0.9094153 -0.079270065 -0.45220318 0.82241535 -0.16831534 0.727267 -0.6244129 -0.8490499 -0.31337386 1.0238019 0.2567727 -0.43410575 0.44820645 0.41222247 -1.13075 -0.04304523 -0.7283794 0.31462038 0.09523161 0.11461769 0.8725019 0.5397323 0.2936782 1.1302997 -0.29620928 -0.02644417 1.2241546 0.70133704 0.1830402 -0.062234126 -0.24006768 -1.2211199 0.764815 -0.33093768 -0.6590678 -0.7178064 -0.8508361 0.27632004 0.30137143 -0.5501082 -0.58251363 -0.2032362 -0.4074348 -0.20563613 0.5364697 -0.529235 0.8437992 -0.56533253 1.6455767 -0.05494354 0.36377668 0.3254371 -0.43709287 0.22507842 -0.9269113 -0.8930652 -0.34690958 -0.20535071
2425 0.4881562 -0.27082774 -0.072856925 -0.23561627 -0.053003944 -0.14319928 0.16367108 0.60025865 -0.27899098 0.043681394 0.5857853 -0.39045337 -0.18967302 -0.16175717 -0.86705893 -0.34346494 0.20059934 0.013573479 0.79894936 -0.56018096 -0.49958688 -0.72566015 -0.5329662 -0.016048597 0.25219613 0.3870515 -0.33898717 0.10387354 -0.15118438 0.580393 -0.25554737 0.39928764 0.8854734 -0.18939714 -0.6912665 0.4821645 -0.3532988 -0.045111977 -0.47081274 0.47844595 -0.12742612 -0.26442555 0.4671513 -0.7812747 -0.44606665 -0.87853056 0.24870458 0.5783744 0.6405833 -0.5466408 0.6164509 -0.08812316 0.040823437 -0.6857935 0.87820035 0.09334248 -0.52188885 -0.29670566 -0.30131707 0.29255074 -0.9686649 -0.20213169 0.56499696 0.26803842
2880 -0.06695331 0.5213544 1.1813885 -0.70753956 0.05264232 0.112034574 -0.21172673 0.31272355 1.2793852 0.5227344 -0.03843496 -0.101140715 0.37402132 -1.1339967 -0.7903047 0.39232582 1.1715056 -1.0740788 0.7323119 -1.293871 0.3484681 -0.57063085 -0.32176548 0.7976045 -0.23625846 -0.20716423 -0.30557218 -0.32856566 -1.0407035 1.4951829 -1.1382593 -0.1261789 -1.0724624 0.012961592 -0.06475965 0.537416 -0.6100048 -0.46658838 -0.22536875 0.66450757 0.52054423 0.34186143 -0.7249348 -0.34621474 0.36671004 -0.44221097 -0.586127 -0.47475246 0.67882395 0.1613514 0.30746412 0.16881415 0.017198818 -0.17760323 0.891843 -0.13672975 0.63111395 -0.49259606 -0.07759205 -0.11404125 -0.8872403 -0.24734427 -0.20004001 -0.49948356
2534 -0.52971375 1.5063456 -1.2262688 -0.30343628 0.054630116 0.3475716 -0.27428594 0.32404664 0.08508016 0.5182312 -0.85129106 0.1838505 -0.14030449 -1.1283238 -0.28240007 0.5859879 -0.092317574 -0.21011752 0.016938094 -0.21191268 0.3421526 -0.71400845 0.35963386 0.5940118 0.7688335 0.112535335 0.41175094 0.1000057 -1.3465303 1.1132578 -0.90199536 -0.40068492 -0.06582621 0.34292322 -0.6987645 0.7816055 -0.40484837 -0.17550366 0.4418557 -0.19151533 -0.91441333 -0.31658 -0.022409534 1.1632388 0.101251975 -0.6079888 0.37411806 -0.49490976 -0.50390565 0.50925463 0.3040509 -0.8122995 -1.2535763 -0.14293046 0.8807539 -0.9193258 0.48869815 -0.3504012 -0.8032092 0.62825614 0.27283585 -0.94642216 -0.27924278 -0.62212735
1140 1.0264671 -0.70656264 0.4373286 -0.044659816 0.016802529 -0.508024 1.3838245 -0.7974341 0.2570329 0.0011234961 -1.0019007 -0.20009358 0.39603126 0.49208662 -0.5469081 0.22788376 0.472461 0.39207566 0.51959366 -0.25006142 -0.80713373 0.24513824 -0.09279362 0.32356703 0.25340575 -0.3117379 -0.32246178 0.9123928 -0.97985613 1.1033891 0.31043515 0.4363623 0.16158886 0.22577214 0.067885146 0.5576279 -0.42855477 0.0034597197 0.1768446 0.19366705 0.56645906 -0.488489 -0.2595461 0.49517655 0.039197024 -0.8753484 0.31553975 0.252554 -0.26431236 0.45810726 1.6423943 0.19187188 0.4289505 0.2299509 0.95498234 -0.1994171 -0.43385902 0.122332975 -0.5820147 -0.18346004 0.47035012 0.5422918 -0.28140712 0.06966383
560 0.90862894 0.26005352 -0.12605745 -1.2440339 -0.42598403 -1.3590028 0.73381793 0.2259826 0.28647006 0.3903335 -0.9934596 0.5962143 -0.69912535 -0.67307615 -0.59176624 0.23191169 -0.17713147 -0.24491371 -0.40661445 -1.0384592 -0.8173021 0.22276093 -0.17599165 0.55314773 -0.14906152 0.19322467 0.50167155 0.35012096 0.12076471 0.015436971 0.13076153 -0.91247 -0.268917 -0.007838245 -0.5073197 1.1561005 -0.109208874 -0.40760085 -0.7825525 0.23697127 0.81051654 -1.7555764 -0.6521997 0.804422 -0.53415656 -0.044162955 0.10093547 -0.5172493 0.21714371 1.06856 -0.3185162 0.38428503 -0.6968922 -0.18248908 0.57668465 -0.5006512 0.15436529 -0.36172506 0.32145417 0.38214695 -1.066123 -0.27207586 -0.07381894 -0.32612973
852 -0.16004941 -0.28058624 -0.39254114 -0.38885766 -0.14764081 0.44496945 -0.084973834 -0.4804186 -0.36991522 0.9239209 -0.1801658 0.3934195 -0.36886507 -0.9061216 -0.39044172 -0.4435016 -0.6970504 1.1809762 -0.80945116 -0.5016195 -0.6146939 -0.3615696 -0.014603229 1.0461156 0.9127876 -0.51767147 -0.053381547 0.30767125 -0.6988836 0.75378877 -1.151457 0.09844325 0.16627437 -0.20946008 0.20488474 0.09281435 0.23566833 0.24153441 0.28922862 -0.14783828 -0.18312314 -1.825392 -0.24096414 -1.0209823 0.21680383 -0.23945531 0.29080918 0.6278334 0.08608959 0.6895356 0.28750938 0.60912234 0.6223652 -0.27806047 0.2201769 -1.1040994 -0.048419945 -0.6082211 -1.2744954 0.06718243 0.104125045 -0.29795983 0.1808887 0.05159086
1287 -0.0847285 -0.016101625 1.196906 0.13332018 -0.65037864 0.5489479 -0.23844597 0.19566518 0.35193893 0.32088783 -1.1042928 0.2583621 -0.32614625 -0.93295914 -0.03931841 -0.06901318 -0.20607929 1.0724902 0.11789556 -0.3750449 -0.38488495 1.2469225 0.025225777 -0.64686805 -0.7019693 0.467364 -0.037058353 -0.24166116 -0.20706648 0.17872508 -0.28038672 -0.07780014 -0.24051173 0.59616834 0.3490381 1.3477726 0.572307 -0.2959909 -0.22095767 0.04167969 -0.6219341 -0.96847415 -0.44298467 0.27050552 -0.5512728 -1.2377522 -0.048380442 -0.6774435 0.09013426 0.22732365 0.4069882 -0.5798475 -0.3610628 0.48141375 1.0133195 -1.0662379 0.08979557 -0.32695836 -1.0822784 -0.19003698 0.1572692 0.32786918 -0.015819304 0.23626971
1403 0.18091424 0.023142766 0.22858928 0.5930056 -1.7051474 -0.29426408 0.66596264 0.68944174 -0.19463621 0.11671439 -0.30930713 0.62109345 -0.21621606 -0.44187304 -1.0341399 0.090023406 -0.53666323 -0.038218718 0.36370975 0.22805403 -0.81240845 -0.2948889 0.20491652 -0.50039315 1.0853205 -0.8543844 0.70926595 0.36415917 -0.2761768 0.99563694 -0.639799 -1.2187959 -0.4154618 -0.07653918 -0.877415 1.9072313 0.12851308 0.15659726 -0.6227274 -0.49004412 -0.52224374 0.028565103 -1.4398555 -0.11574699 -0.14777833 -0.21830894 -0.21731785 -0.036900785 1.0805763 0.21027203 0.5868358 1.2995981 -0.27147654 0.11554146 0.96777385 -0.15919119 -0.09828321 0.008064303 -0.23310338 0.08709669 0.22529775 0.84139585 -0.69474834 0.05718099
2546 -0.5149882 1.4542633 -1.2402078 -0.28540176 0.057750355 0.4553423 -0.36820757 0.3606772 0.14699128 0.47824538 -0.89965475 0.1481345 -0.17279065 -1.1678284 -0.39067873 0.5443881 -0.0862198 -0.19627975 0.041042216 -0.25014305 0.464856 -0.64754945 0.22011973 0.60493064 0.7956898 0.031655826 0.38518795 0.1729299 -1.2713321 1.2006003 -0.9658933 -0.38729137 -0.04892434 0.44223207 -0.7329109 0.8063286 -0.44282734 -0.18192431 0.47397533 -0.24365386 -0.85191137 -0.33759704 -0.0639822 1.2485309 0.075423256 -0.5137547 0.4123435 -0.37937412 -0.5410089 0.58650565 0.28559324 -0.7957478 -1.2526681 -0.078628674 0.91655606 -0.9096382 0.48498112 -0.34117678 -0.8263004 0.676092 0.29506537 -0.98852277 -0.2550752 -0.58689
777 0.6477623 0.45849094 -0.6762379 -0.7511507 -0.8275516 -0.026834467 0.02667523 0.89156264 0.6746667 -0.66232896 -0.55711555 0.3591649 0.58774555 -0.06699896 0.21215324 0.96072084 1.6183711 -0.5438599 0.10104425 0.00914048 0.49257314 -0.35479212 -0.26349145 0.53316516 0.035603527 -0.12890743 0.4471437 -0.32261536 -0.38205653 1.4630479 0.40953028 0.20012802 -0.457215 0.080674134 -0.8734932 1.3412359 0.18060547 -0.31353712 0.7997588 -0.009891023 -0.07341624 -0.10580783 -0.071381286 0.10157851 -0.4395715 -1.1308223 0.022896288 -0.83078027 -0.07469261 -0.39093232 -0.043186598 0.40518773 0.35823822 -0.8879614 1.8575406 0.050886206 -0.13862804 -0.42642274 -0.67729735 0.44047225 1.0056868 0.12788711 0.10782926 1.2664397
1125 0.9869029 -0.7458516 0.44017997 -0.08793526 -0.0087396065 -0.59865654 1.4577338 -0.704754 0.22970985 -0.052175757 -0.9811548 -0.24713075 0.42623058 0.3931495 -0.40950525 0.13778904 0.5373802 0.40695882 0.47498617 -0.24394058 -0.8016794 0.33840147 -0.2205555 0.38288277 0.20955062 -0.40556216 -0.38753766 0.9913109 -0.98364973 1.111584 0.34812412 0.46774092 0.18730839 0.22244635 0.1428759 0.5691396 -0.4758487 -0.005952378 0.17361636 0.15532131 0.53081036 -0.42297924 -0.28571162 0.5314616 0.058142852 -0.90727293 0.37860525 0.26950246 -0.25580207 0.35540965 1.661074 0.09892128 0.4277376 0.25938293 0.8791751 -0.27410614 -0.3716575 0.018466469 -0.596464 -0.19068675 0.41487986 0.6135081 -0.2962057 0.08757625
251 1.3688563 0.26061192 -0.26581082 -0.5232186 -0.21393397 -0.8111328 0.40767634 0.46269304 -0.58080435 0.6789413 -0.39558646 -0.86565864 0.90204275 -0.83409023 -0.75312763 0.060914278 -0.39455053 0.110218786 0.16513272 0.01204411 -0.08129608 0.09283244 0.5956847 0.12055346 -0.041996848 -0.39855164 0.42684254 -0.7454667 -0.22149402 0.9113094 -0.9724788 0.6813845 0.8874107 0.29746643 -1.0095646 1.1524013 -0.39064887 -0.1589618 -1.0836576 -0.80564 0.3289143 -0.5981303 0.6414599 0.123388715 -0.30706042 -0.9019466 -0.1057263 0.8629001 -0.62024766 0.1116548 0.96030456 0.2832811 -0.25161684 -0.018649962 0.6187349 -0.27720144 -0.3858358 -0.23781313 0.3696398 -1.2506044 -0.25756845 -0.65422153 -0.6944107 0.033394832
3138 0.66706973 -0.41221932 -0.16339156 -0.37747097 0.0713101 -0.084123574 0.36898533 0.25690863 0.11475732 1.1480572 0.6425512 -0.05933708 -0.56345624 -0.1085185 -0.28469205 -0.26521724 0.10964299 0.40650684 0.44052836 -0.8015805 -0.15422262 -0.8271423 -0.48608705 0.16348799 0.3638907 0.6602476 -0.30319884 0.6632519 -0.07312581 0.4689091 0.23913276 0.04259342 1.0624635 0.15863937 -0.5209807 0.40548337 0.15709583 0.11004329 -0.5306831 0.12315007 0.09412393 0.25434595 0.8554806 -0.44694325 -0.86345893 -1.0173342 -0.13042226 0.27381852 0.52904284 0.02720487 0.63741 -0.028938815 0.73148835 -0.46967793 0.90687037 0.0305518 -0.14157806 -0.36744148 -0.10005576 0.02365588 -0.72877413 -0.21009327 0.49359986 0.64074457
2697 -0.943098 0.54875946 -0.2664014 -0.4276146 -0.8563192 -1.2046201 0.3673009 -0.8286709 0.32583556 -0.70374936 -0.009385935 1.0351954 0.83610815 -0.8956594 -0.22803685 1.5620658 0.27489233 -0.13188814 0.43568543 -0.84013754 0.031065226 0.7563915 -0.24919547 -0.20468318 0.16002429 -0.7574973 -0.19661802 0.25504732 -0.9353797 0.92463243 -0.3837101 -1.1402724 -0.0973076 0.33548567 -0.95954686 1.698749 1.2627598 -0.0068523674 -0.59629446 0.12825753 -0.39827335 1.300187 -0.359074 -0.9567865 -0.08265493 -2.0289052 -0.04320193 0.5133895 -0.80847806 0.46954206 0.80531764 -0.012895865 -0.32408753 -0.43067378 0.59677327 -0.48668006 -0.32584298 0.4779128 -0.0883513 -0.5996057 -0.19232187 0.092990816 -0.06163854 0.34091693
